<?xml version="1.0"?>
<opencv_storage>
<ann type_id="opencv-ml-ann-mlp">
  <layer_sizes type_id="opencv-matrix">
    <rows>1</rows>
    <cols>3</cols>
    <dt>i</dt>
    <data>
      140 40 54</data></layer_sizes>
  <activation_function>SIGMOID_SYM</activation_function>
  <f_param1>1.</f_param1>
  <f_param2>1.</f_param2>
  <min_val>-9.4999999999999996e-001</min_val>
  <max_val>9.4999999999999996e-001</max_val>
  <min_val1>-9.7999999999999998e-001</min_val1>
  <max_val1>9.7999999999999998e-001</max_val1>
  <training_params>
    <train_method>RPROP</train_method>
    <dw0>1.0000000000000001e-001</dw0>
    <dw_plus>1.2000000000000000e+000</dw_plus>
    <dw_minus>5.0000000000000000e-001</dw_minus>
    <dw_min>1.1920928955078125e-007</dw_min>
    <dw_max>50.</dw_max>
    <term_criteria><epsilon>9.9999997764825821e-003</epsilon>
      <iterations>1000</iterations></term_criteria></training_params>
  <input_scale>
    7.8618631543282884e+000 -2.5985380791449519e+000
    7.2715777263139554e+000 -2.6150789879535652e+000
    6.8247039591709653e+000 -2.4548676221040484e+000
    5.7209582214766694e+000 -2.1706241264202726e+000
    3.7368314872560005e+000 -2.0311400468407506e+000
    3.4352748165434011e+000 -2.3719139803856915e+000
    3.8250379898050095e+000 -3.1024641173039287e+000
    3.8185309740643421e+000 -3.1135473822069222e+000
    5.0527360647151927e+000 -3.9116451476697227e+000
    5.6502135781693443e+000 -4.2792866577950477e+000
    5.5577198720293666e+000 -4.2876440512655254e+000
    5.2477508223160534e+000 -4.2796918448288839e+000
    5.1583921086916487e+000 -4.4186844018863241e+000
    4.9000589689906482e+000 -3.9868594798418395e+000
    4.5772698403995635e+000 -3.2033536806489042e+000
    4.9979273303730958e+000 -2.5290547401114210e+000
    6.2509325713888124e+000 -2.9451468191487956e-001
    1.1281600966161538e+001 -2.8877005353630442e-001
    1.3545733849659008e+001 -2.8728771593826313e-001
    1.3136654656727904e+001 -2.9031642407593283e-001
    5.8757733174895250e+000 -4.3950828288893904e+000
    6.1236818765368586e+000 -4.9569758116240523e+000
    6.1338159742870246e+000 -5.0203350189607088e+000
    6.1960262556934085e+000 -4.8311014921548265e+000
    6.4120310143242172e+000 -4.7251490088280415e+000
    6.5688417593481452e+000 -4.7908213650244358e+000
    6.5888436222987972e+000 -4.8165021001824382e+000
    6.5828899072175240e+000 -4.8324344404136550e+000
    5.7153952945518771e+000 -4.2724267287478579e+000
    5.5190367345390738e+000 -4.2720252666476988e+000
    5.5498051751125681e+000 -4.2605864321838851e+000
    5.6238716059782670e+000 -4.1137920542225501e+000
    5.8564083958188595e+000 -4.1089558276051701e+000
    5.9386091675140245e+000 -4.1786812937730833e+000
    5.9064048990760059e+000 -4.2399887302119579e+000
    5.7900960405520641e+000 -4.1325980998425687e+000
    5.2788434792358432e+000 -3.9243920505790095e+000
    5.1683010654033819e+000 -4.0265390518971387e+000
    5.1721231168285904e+000 -3.9576653807055133e+000
    5.3806426309967872e+000 -3.9018447944903607e+000
    1.8491729123698666e+000 -1.3506093379244004e+000
    1.0054899676841311e-001 -2.2503186377824372e-001
    1.4416357296632550e-002 -6.8956325333436252e-001
    1.0695867139329306e-002 -1.4632998765443330e+000
    1.0010254395729336e-002 -1.5824299779592870e+000
    1.1106779871340889e-002 -1.9259013523582289e+000
    1.1563377468182355e-002 -1.6678852153128734e+000
    1.6119264905121364e-002 -6.3876874225082003e-001
    1.1775647222540822e-001 -1.1758683191745939e-001
    4.5225861962909981e+000 -2.0648332367817945e-001
    1.7998373110084080e+000 -1.5104352788416082e+000
    6.4650215685955317e-002 -2.3863409067857777e-001
    1.2105352334113438e-002 -9.3216981258914244e-001
    1.0520969700915260e-002 -1.7937950209284561e+000
    1.2158437752106240e-002 -1.4799906858157246e+000
    1.1837752705579688e-002 -1.6470414724338744e+000
    1.0735990933959154e-002 -1.8725417006412461e+000
    1.3551881591947170e-002 -8.8023856078687168e-001
    9.7901754129838897e-002 -1.5053045639976892e-001
    4.2563959024369700e+000 -1.9480180714832321e-001
    1.8011386563721441e+000 -1.4899711956801924e+000
    5.5016210160858545e-002 -2.3513577055452042e-001
    1.1074803086429722e-002 -8.9855139935287953e-001
    1.0444961443905302e-002 -1.5006877062130475e+000
    1.0556601994133063e-002 -7.9023372117163537e-001
    1.0110243486376421e-002 -8.3428555098960577e-001
    1.0073867672077044e-002 -1.3743617804880552e+000
    1.1948952969991834e-002 -8.1931894278725037e-001
    6.9893816303888481e-002 -1.6504513869897602e-001
    4.3688090077170525e+000 -2.0672445105221426e-001
    1.8312667117415307e+000 -1.3454452902090368e+000
    5.5396937482495086e-002 -2.3178437151225256e-001
    1.1079108806933562e-002 -8.9072646250530962e-001
    1.0309494007675855e-002 -1.5491419963468860e+000
    1.0248321112759274e-002 -1.0088043457767728e+000
    1.0324142646435218e-002 -1.0414387368504234e+000
    1.0065042461695961e-002 -1.2707160722441069e+000
    1.2338574929821624e-002 -7.2786653632995613e-001
    7.4031831534638493e-002 -1.5527487538299012e-001
    4.6600487448829941e+000 -2.1637416047273653e-001
    1.7668655360966499e+000 -1.1297444750972596e+000
    6.5122580199688279e-002 -2.1728454867380478e-001
    1.1553507671372405e-002 -8.2903715302926673e-001
    9.9522098905723746e-003 -1.6043681408413024e+000
    1.0239253110781379e-002 -1.5849907678549133e+000
    1.1361337072792341e-002 -1.9622403967363466e+000
    1.1365811478733640e-002 -1.8476673236041448e+000
    1.3380332937192404e-002 -6.9751212983689892e-001
    8.7301956469495720e-002 -1.3541284183328142e-001
    4.4427442836483459e+000 -2.0283805904954771e-001
    1.7210040784655296e+000 -1.2436466750524953e+000
    6.4952565396703632e-002 -2.1886941584474337e-001
    1.1765164687536777e-002 -7.6332372847572794e-001
    1.0178988916289182e-002 -1.4376378016043392e+000
    1.1249753796248185e-002 -1.3019420851204542e+000
    1.0675074933883878e-002 -1.5251528296192298e+000
    1.0987601507663409e-002 -1.8402320896971072e+000
    1.2820260341438582e-002 -7.9603673030302802e-001
    8.3828559379158479e-002 -1.5224581778202884e-001
    3.7759004548369988e+000 -2.0293791230008248e-001
    1.7470154316022188e+000 -1.2659279595796664e+000
    5.9272197031346223e-002 -2.2856315517473247e-001
    1.1174990796389722e-002 -8.2285776645153719e-001
    9.7715276112482763e-003 -1.2361448048449908e+000
    1.2003936886911164e-002 -7.5108143579154218e-001
    1.0572148112816857e-002 -9.0794648337233330e-001
    1.0276392053485165e-002 -1.5022925899492467e+000
    1.1711668741112397e-002 -8.5587068572849978e-001
    6.2086467833709545e-002 -1.7820962874875274e-001
    3.4900531640598986e+000 -1.7287829835270108e-001
    1.3036182699512922e+000 -8.6171132316704990e-001
    5.5289738524039948e-002 -2.4071622862726968e-001
    1.1139223072786055e-002 -9.9534463578094357e-001
    1.0760618013285662e-002 -1.6238492818448778e+000
    1.1300803747375633e-002 -8.1785309283339813e-001
    9.7170562244343079e-003 -8.7944527478058376e-001
    1.0018558693651277e-002 -1.4472198827821929e+000
    1.1639421615942069e-002 -8.7643013210121057e-001
    6.4946257236770930e-002 -1.7935789855912770e-001
    4.0951647136053673e+000 -1.8243087487470719e-001
    7.3086370950128543e-001 -5.1186376817909174e-001
    6.9744965936201206e-002 -2.2884294064771513e-001
    1.2025865484052401e-002 -9.9175409617734667e-001
    1.0669008431418572e-002 -1.8633108735640671e+000
    1.2411845010961646e-002 -1.5033682218396829e+000
    1.2748146367808046e-002 -1.6195754280409680e+000
    9.5630781375262552e-003 -1.5287031851338222e+000
    1.3922782129557268e-002 -8.3498738384570204e-001
    8.8734742147518600e-002 -1.4127349738845299e-001
    4.8051588254080100e+000 -1.6134343130525566e-001
    1.6019157131545734e+000 -1.2124428547036499e+000
    9.5740177325322529e-002 -2.0363884791469863e-001
    1.4708600013553563e-002 -6.6147462518843103e-001
    1.1368288303098136e-002 -1.4877176500516385e+000
    1.0073776373014619e-002 -1.5882641351989879e+000
    9.8777058152768309e-003 -1.4360316861117204e+000
    1.1101781763300454e-002 -1.2924902487242451e+000
    1.6673181951724361e-002 -5.6179791416481173e-001
    1.1650571912062545e-001 -1.1431090836591509e-001
    4.5658995385028724e+000 -1.6747703316095419e-001</input_scale>
  <output_scale>
    5.2631578947368418e-001 4.9999999999999994e-001
    5.2631578947368418e-001 4.9999999999999994e-001
    5.2631578947368418e-001 4.9999999999999994e-001
    5.2631578947368418e-001 4.9999999999999994e-001
    5.2631578947368418e-001 4.9999999999999994e-001
    5.2631578947368418e-001 4.9999999999999994e-001
    5.2631578947368418e-001 4.9999999999999994e-001
    5.2631578947368418e-001 4.9999999999999994e-001
    5.2631578947368418e-001 4.9999999999999994e-001
    5.2631578947368418e-001 4.9999999999999994e-001
    5.2631578947368418e-001 4.9999999999999994e-001
    5.2631578947368418e-001 4.9999999999999994e-001
    5.2631578947368418e-001 4.9999999999999994e-001
    5.2631578947368418e-001 4.9999999999999994e-001
    5.2631578947368418e-001 4.9999999999999994e-001
    5.2631578947368418e-001 4.9999999999999994e-001
    5.2631578947368418e-001 4.9999999999999994e-001
    5.2631578947368418e-001 4.9999999999999994e-001
    5.2631578947368418e-001 4.9999999999999994e-001
    5.2631578947368418e-001 4.9999999999999994e-001
    5.2631578947368418e-001 4.9999999999999994e-001
    5.2631578947368418e-001 4.9999999999999994e-001
    5.2631578947368418e-001 4.9999999999999994e-001
    5.2631578947368418e-001 4.9999999999999994e-001
    5.2631578947368418e-001 4.9999999999999994e-001
    5.2631578947368418e-001 4.9999999999999994e-001
    5.2631578947368418e-001 4.9999999999999994e-001
    5.2631578947368418e-001 4.9999999999999994e-001
    5.2631578947368418e-001 4.9999999999999994e-001
    5.2631578947368418e-001 4.9999999999999994e-001
    5.2631578947368418e-001 4.9999999999999994e-001
    5.2631578947368418e-001 4.9999999999999994e-001
    5.2631578947368418e-001 4.9999999999999994e-001
    5.2631578947368418e-001 4.9999999999999994e-001
    5.2631578947368418e-001 4.9999999999999994e-001
    5.2631578947368418e-001 4.9999999999999994e-001
    5.2631578947368418e-001 4.9999999999999994e-001
    5.2631578947368418e-001 4.9999999999999994e-001
    5.2631578947368418e-001 4.9999999999999994e-001
    5.2631578947368418e-001 4.9999999999999994e-001
    5.2631578947368418e-001 4.9999999999999994e-001
    5.2631578947368418e-001 4.9999999999999994e-001
    5.2631578947368418e-001 4.9999999999999994e-001
    5.2631578947368418e-001 4.9999999999999994e-001
    5.2631578947368418e-001 4.9999999999999994e-001
    5.2631578947368418e-001 4.9999999999999994e-001
    5.2631578947368418e-001 4.9999999999999994e-001
    5.2631578947368418e-001 4.9999999999999994e-001
    5.2631578947368418e-001 4.9999999999999994e-001
    5.2631578947368418e-001 4.9999999999999994e-001
    5.2631578947368418e-001 4.9999999999999994e-001
    5.2631578947368418e-001 4.9999999999999994e-001
    5.2631578947368418e-001 4.9999999999999994e-001
    5.2631578947368418e-001 4.9999999999999994e-001</output_scale>
  <inv_output_scale>
    1.8999999999999999e+000 -9.4999999999999996e-001
    1.8999999999999999e+000 -9.4999999999999996e-001
    1.8999999999999999e+000 -9.4999999999999996e-001
    1.8999999999999999e+000 -9.4999999999999996e-001
    1.8999999999999999e+000 -9.4999999999999996e-001
    1.8999999999999999e+000 -9.4999999999999996e-001
    1.8999999999999999e+000 -9.4999999999999996e-001
    1.8999999999999999e+000 -9.4999999999999996e-001
    1.8999999999999999e+000 -9.4999999999999996e-001
    1.8999999999999999e+000 -9.4999999999999996e-001
    1.8999999999999999e+000 -9.4999999999999996e-001
    1.8999999999999999e+000 -9.4999999999999996e-001
    1.8999999999999999e+000 -9.4999999999999996e-001
    1.8999999999999999e+000 -9.4999999999999996e-001
    1.8999999999999999e+000 -9.4999999999999996e-001
    1.8999999999999999e+000 -9.4999999999999996e-001
    1.8999999999999999e+000 -9.4999999999999996e-001
    1.8999999999999999e+000 -9.4999999999999996e-001
    1.8999999999999999e+000 -9.4999999999999996e-001
    1.8999999999999999e+000 -9.4999999999999996e-001
    1.8999999999999999e+000 -9.4999999999999996e-001
    1.8999999999999999e+000 -9.4999999999999996e-001
    1.8999999999999999e+000 -9.4999999999999996e-001
    1.8999999999999999e+000 -9.4999999999999996e-001
    1.8999999999999999e+000 -9.4999999999999996e-001
    1.8999999999999999e+000 -9.4999999999999996e-001
    1.8999999999999999e+000 -9.4999999999999996e-001
    1.8999999999999999e+000 -9.4999999999999996e-001
    1.8999999999999999e+000 -9.4999999999999996e-001
    1.8999999999999999e+000 -9.4999999999999996e-001
    1.8999999999999999e+000 -9.4999999999999996e-001
    1.8999999999999999e+000 -9.4999999999999996e-001
    1.8999999999999999e+000 -9.4999999999999996e-001
    1.8999999999999999e+000 -9.4999999999999996e-001
    1.8999999999999999e+000 -9.4999999999999996e-001
    1.8999999999999999e+000 -9.4999999999999996e-001
    1.8999999999999999e+000 -9.4999999999999996e-001
    1.8999999999999999e+000 -9.4999999999999996e-001
    1.8999999999999999e+000 -9.4999999999999996e-001
    1.8999999999999999e+000 -9.4999999999999996e-001
    1.8999999999999999e+000 -9.4999999999999996e-001
    1.8999999999999999e+000 -9.4999999999999996e-001
    1.8999999999999999e+000 -9.4999999999999996e-001
    1.8999999999999999e+000 -9.4999999999999996e-001
    1.8999999999999999e+000 -9.4999999999999996e-001
    1.8999999999999999e+000 -9.4999999999999996e-001
    1.8999999999999999e+000 -9.4999999999999996e-001
    1.8999999999999999e+000 -9.4999999999999996e-001
    1.8999999999999999e+000 -9.4999999999999996e-001
    1.8999999999999999e+000 -9.4999999999999996e-001
    1.8999999999999999e+000 -9.4999999999999996e-001
    1.8999999999999999e+000 -9.4999999999999996e-001
    1.8999999999999999e+000 -9.4999999999999996e-001
    1.8999999999999999e+000 -9.4999999999999996e-001</inv_output_scale>
  <weights>
    <_>
      -4.1124405394986470e-002 8.2029903714950655e-002
      -1.2255496320372912e-001 -1.0903356018766540e-001
      4.1510674324031615e-003 -1.0169647356197176e-001
      1.3084979393127444e-001 -3.6286178424291958e-002
      2.1615125995913598e-001 -4.0037526958041865e-002
      -8.1557921754432827e-002 3.7393786324490370e-002
      -1.5444261210452029e-001 -2.9200412963351557e-001
      -3.2995838551628867e-003 5.7154483156446716e-002
      -3.0076212315287211e-002 7.8281322619827162e-002
      8.0980792392881321e-002 -1.4214902103098187e-001
      -1.7723919873339319e-001 8.3307720410598279e-002
      -2.3264582427737823e-002 5.0418163391662607e-002
      -9.4586553930838382e-002 1.3570967332810463e-001
      4.2759870032854863e-002 -1.3068581443963720e-001
      3.3550550147540298e-002 7.5516800126495753e-002
      -1.7195041597053057e-002 1.0468594563435828e-001
      1.3947574704146010e-001 -1.0759376456034274e-002
      -2.0707146973878446e-001 9.6961545744006478e-002
      1.1521037694449150e-001 -3.1488394947972093e-002
      1.1659383272795852e-002 3.1753133062502679e-002
      -2.9396425888174479e-002 1.9943421868985647e-001
      -2.8401455404053910e-001 9.5077145604282820e-002
      -8.5435916226773032e-002 -3.5875528987792955e-002
      3.5613734336516711e-001 9.2837185540325662e-002
      1.4735711233849300e-001 -2.4232453903155227e-001
      -6.4802369887335690e-002 1.7166630901685939e-001
      1.2916598046058697e-001 -3.1094008530530633e-002
      -8.8384594870688699e-002 7.8722436794919526e-002
      7.8898031955466186e-002 -2.7747017336460077e-002
      -1.9098417112278351e-001 -1.8717055722414216e-001
      -1.4651525543104588e-001 4.8467218155727777e-002
      -2.0703230771699394e-001 -8.9833775534413740e-002
      1.4531554180001519e-001 3.5609991941775460e-001
      9.1952295993018601e-002 -1.9870831424359858e-001
      1.6174401436915514e-001 5.8563903112326246e-002
      -1.0149507982975096e-002 -1.0317975734500183e-001
      1.9038459138126654e-001 -4.1818637701136717e-003
      -4.9476478350150135e-002 -3.8981459283493704e-002
      5.6536707988998632e-002 -2.2364469258146832e-002
      -1.1291827271828665e-001 1.8349125911947686e-001
      1.1459292234744869e-001 8.1735008656575125e-002
      -2.8167835604808611e-001 -1.0168790211741774e-001
      1.1009500092357039e-001 -7.6406975028204843e-002
      2.1515259860709568e-001 7.6675957757561086e-002
      1.5027347636124061e-001 8.0259599931708364e-002
      -6.4009511307264025e-002 4.9825085480591641e-002
      1.3642814606996920e-001 -7.7766275266470952e-003
      -1.2064332222675045e-001 1.3645246791858545e-001
      -1.3973826745297538e-001 2.1825049371239642e-002
      7.2450603862592874e-002 -1.5751847116380058e-001
      -1.3474765057631638e-001 1.5972122200261743e-001
      -2.8886388141916919e-001 -1.0999873604108086e-001
      4.3117764117544460e-001 4.0524493395971577e-002
      2.6010625070665185e-002 -2.8864418181770185e-001
      -1.3114175764987368e-001 -3.5653899935169917e-002
      -9.4207360914335698e-003 5.5691599515224628e-002
      1.5709741458436319e-001 -3.6867049841913021e-003
      4.7278651913933079e-001 -1.3549421812225920e-001
      4.9042527485962710e-002 7.9544715743172290e-002
      4.6936512869662390e-002 -9.7129422665990853e-003
      -5.5415571722948379e-002 1.1790696391700174e-001
      7.0362334594694081e-003 -3.1076266277800169e-001
      3.9136592562609630e-002 4.4577016610395509e-001
      3.2229408639294921e-001 -1.2493081687523402e-002
      2.6207074371696709e-001 1.0950401387370319e-001
      -3.5983748582851222e-002 1.5926436843114480e-001
      -5.6908093428324069e-001 -3.4832103477739329e-001
      -1.5668030412236633e-001 5.2417267603565514e-002
      -8.4312139691932429e-003 1.7434094497358954e-001
      -1.8558854901500962e-001 -1.8086802076589512e-001
      -1.5569336740009329e-001 -9.2559469880181322e-002
      -5.2357542645434893e-002 2.8839656127762231e-001
      1.6061992169514549e-002 6.3763346582891706e-002
      -1.2930316981665375e-002 -2.2264101818535853e-001
      1.3908977552986337e-001 9.4241470851062110e-003
      3.1912757099198530e-001 2.8523849010213490e-002
      2.2254417833497087e-001 -1.4348363949617962e-001
      5.0276498273643710e-001 -2.1094639132691155e-002
      1.0765351293937677e-002 -7.8514091956270737e-002
      1.3570844430181321e-003 -1.0900985851588905e-002
      -9.7697783225617257e-002 -1.4608164204746310e-001
      -5.9952709119628925e-002 -1.4583604171606094e-002
      1.9060322136219257e-001 7.6121564055189916e-001
      2.2588126551941970e-001 2.7459816586096164e-001
      2.5829703423759470e-001 1.1866062638435602e-001
      -3.4864269759905378e-002 -1.9234757163801414e-003
      -4.5091647579372385e-001 -3.0304215611111252e-001
      -6.3767398321160365e-002 -1.2804272649167359e-002
      3.9574963165372651e-002 5.9106779054284055e-002
      -3.9299576257659043e-002 -1.4072791840694882e-001
      7.8382549203686230e-002 3.9215403510989483e-001
      1.0047371138897022e-001 1.7501704621828054e-001
      -2.6617079671038480e-002 -1.0313551849237193e-001
      1.0226189008705646e-002 -2.0626515100650400e-001
      1.5274684124280297e-001 -2.5251540690941141e-002
      -1.1092076157797977e-001 -5.0260664523363467e-002
      -5.4611191095804625e-002 -1.3078478693191539e-001
      4.1984724198754247e-001 3.0780660596081300e-001
      9.9316887868604237e-002 6.7573530340974033e-002
      -4.4348104798006176e-003 3.5113846405604882e-001
      4.6014037024288780e-002 -1.2834937731443297e-001
      4.7466504514472325e-002 1.1308724900862190e-001
      -1.7623028503180094e-002 -7.6539960360108225e-002
      -1.2064160598856043e-001 2.1228267216060057e-001
      -2.1564043483737816e-001 1.1259801860151276e-001
      2.2576947514371179e-001 -3.1113901906783697e-003
      8.8250096881371920e-002 -1.0440633835431481e-001
      -2.9324836472597099e-001 4.0367074278807209e-002
      -4.1540110209240026e-002 -1.5410401676994420e-001
      8.4682572815903662e-002 -7.6104595385491261e-002
      4.2491290993925727e-002 2.9347753851044950e-001
      -8.3685370312041818e-002 2.4444214391683083e-001
      1.1703059078711110e-001 -4.0176735430884576e-002
      3.3373762369043908e-002 -2.8757907459843447e-002
      -7.6768339281911110e-002 6.8003628500805189e-003
      -2.7977692504857824e-002 -4.4750778637403892e-003
      -3.5375335898034266e-002 1.1376334322755499e-001
      -1.7332223103291109e-002 8.2884939519910980e-002
      7.0845246928245606e-002 -8.3918426411503030e-003
      2.5968200264869196e-001 1.4294979759901663e-001
      -3.6169821137320701e-002 -1.8713657083982694e-002
      -3.7157663768625983e-002 1.2796807291465423e-001
      1.8833041776704456e-002 7.8954485084661141e-001
      5.4773536667329725e-001 -1.4108269283060070e-002
      9.9883989031606862e-002 1.8321383935394991e-001
      -7.8499635472763354e-002 -3.9736731009339839e-002
      1.3280532882560692e-001 2.4498776919769302e-003
      -6.3959195468654428e-001 4.3053740599737211e-002
      2.1468133882361809e-002 3.2474432889627280e-001
      4.8883952218943857e-002 -3.3741615820247883e-001
      1.5201371641336489e-003 -2.3241752472351173e-002
      -1.3255853369362575e-001 6.5092283771210124e-001
      6.8862366130918923e-002 -1.9389488290684903e-002
      -5.6146188433415352e-002 1.1065738457742887e-001
      -8.9515580232430947e-002 -3.0812092484017679e-002
      -2.0097138000533778e-002 1.9551972653211253e-002
      -4.4271171632070899e-001 3.2739701827670242e-001
      6.8604992893950667e-001 1.2653347479856259e-002
      6.7259308730748327e-002 -1.9963216700483351e-002
      -4.8929142643120670e-002 1.5245355319096118e-001
      -4.5024322436299440e-002 1.2980683775388446e-001
      -2.0932284317420766e-001 -1.7521111159887720e-001
      -1.6482251847910290e-001 5.1569215751983466e-001
      -3.0434823385175102e-003 6.1260600813301633e-002
      2.6259695349379220e-001 8.4876908419647179e-002
      -2.2530602175307887e-001 3.2327303248201579e-002
      1.2479063234192900e-001 1.0414562594743709e-001
      2.2980753919046779e-001 1.2695847864140489e-001
      8.9988861568260456e-002 4.3281568444400564e-001
      7.4609996191934064e-002 -5.2032018793488199e-001
      3.9165569499649229e-002 4.5299697262168662e-003
      -1.5647120450511817e-001 1.0889859964881632e+000
      4.0792978949156511e-001 4.6592299381852234e-002
      1.3230203056202249e-002 -2.5857861493399015e-001
      -5.7419675867917597e-001 3.9567297593420918e-002
      -4.9579685419275654e-002 1.4372193770831855e-002
      -7.4375925509650290e-002 -1.0928446683173491e-002
      1.3770935068094256e-001 2.5921246215969873e-001
      3.9880691333582310e-002 1.7504904552069815e-002
      -6.4640831149119116e-002 1.2275421361781964e-001
      -9.5179429899926032e-003 3.6006513047453143e-001
      1.0967048993044164e-001 -3.2534238913743227e-002
      -4.4410884225835401e-001 1.3596821490705469e-001
      -2.4732070709921773e-002 -1.0003389172918375e+000
      5.7635905123510973e-002 1.4561495608826375e-002
      -3.6699051539899685e-001 1.3172649753470561e-001
      -1.6879422467606758e-001 1.4781083949941418e-001
      -1.7357954428783057e-001 -3.6037258912332719e-002
      -1.1000517316131669e-001 6.4242589123298999e-002
      -8.0507423370917413e-003 -3.5910420727872122e-002
      -1.6280530428827694e-001 1.9801073615932188e-001
      -1.7571649192488731e-001 1.0278994563865790e-001
      1.0866348160309423e-001 1.3232481711004221e-001
      -5.3363332089172433e-001 -1.1396537948887484e-002
      -1.5952774810338682e-001 2.1821911255933982e-001
      -1.6047242716812873e-001 1.0897164372646267e-001
      4.8907572008215394e-001 5.0337116285690632e-002
      5.8616983275014002e-002 7.2893167832668582e-002
      -3.9090840716962078e-001 -1.5946579604525182e-001
      6.8499906109288008e-003 1.7168477510264779e-001
      1.0067778434785109e-001 6.2257449973143669e-002
      1.1596434323267654e-001 -1.0922743804886986e-003
      2.2872786101439424e-001 5.1765801227218376e-002
      -1.1749238845249498e-001 1.7014674874697103e-001
      1.3229748453929596e-001 1.6370618329678534e-002
      1.2584246398888371e-001 -1.5679231303307992e-001
      3.2362692348765078e-002 -9.6690157428966556e-002
      -7.3666215055881210e-002 -1.9438808200014726e-001
      2.5372576213252087e-002 -7.1880374402613328e-002
      -4.5333130308503461e-001 1.9471077133374279e-001
      -7.0802388355616627e-002 2.9495301965598325e-001
      -1.5350972872339683e-001 9.2416223053964811e-002
      2.0943729827522375e-001 9.0529299086560530e-002
      1.2452970471089436e-001 4.0559398919833867e-001
      2.0008870919732699e-001 1.2825011236596356e-001
      -8.3669586244534341e-002 -6.7925246206626377e-001
      7.8701285447622060e-002 -1.8099851465904951e-001
      -1.1836900521536119e-002 2.1388123620861296e-001
      -4.0241196484746236e-002 -1.9736309470387761e-001
      -1.8398418495775301e-001 -2.4179918547709137e-002
      9.3088187510866907e-002 1.2687500139688557e-001
      1.1558903859561398e-001 -1.6024668969020606e-002
      1.1144664977292493e-001 -3.6579452581290396e-002
      -1.5461233954795817e-001 1.1916467526133473e-001
      7.2668023815014873e-002 9.2029387914481120e-002
      1.2260830765693242e-001 -1.6519333682704054e-001
      -6.2722932501909176e-002 -6.3313839177526010e-001
      -1.0893041638590727e-001 1.9424385001073941e-001
      -4.4949988276178250e-003 -1.4207745438090023e-002
      -4.7858978654671824e-001 2.1416641094372896e-001
      -6.0883461983727336e-002 3.4960859399512589e-001
      -5.9318164502687155e-002 1.0070129731699348e-001
      2.3695596542045264e-001 1.0040038211964269e-001
      3.4105614015910646e-001 4.3393562001530089e-001
      1.2397311854296986e-001 2.5863766720749380e-002
      -7.8851523547620248e-002 -1.4488019614934837e+000
      2.8042955327140023e-001 -1.7944139945730528e-001
      -9.5398119029117628e-002 -4.8550389922262772e-002
      -4.8411423900754502e-001 -1.2946522385485273e-001
      -1.9264424713058495e-001 3.9776161178468029e-002
      6.5283404541872758e-002 1.2123521895321033e-002
      -2.4084963077505647e-001 1.0594068111199686e-002
      -3.9251475974181840e-002 6.6987514270478478e-003
      5.3860229988030783e-001 -1.5871868296328816e-002
      1.1588578195032744e-001 7.5532406304632344e-002
      -7.2780103243448552e-002 -9.7308322619214294e-002
      1.8397853458619615e-001 -9.2511223943017973e-002
      -5.3198260475603276e-001 1.4898413570527211e-001
      -1.3907391336811276e-001 4.0586282906451027e-002
      6.9584947137211167e-002 -1.5705145837813839e-002
      -1.5000629861341830e-001 2.0388084110713028e-001
      9.1113268258819977e-002 -5.3129334038041443e-001
      2.9704542457827904e-001 5.9640653197724869e-001
      1.5116976103380675e-001 1.7499566630239066e-001
      -4.7686433655123490e-002 1.7534029096392159e-001
      -6.6174604973795098e-002 -2.7068821798032566e-001
      2.8673863573221076e-001 4.4214215321090039e-001
      1.1462938113006349e-001 6.6054328873010659e-002
      1.5562607445013854e-001 3.0798128572947148e-001
      3.4265066020172996e-001 -1.2520723641275136e-001
      1.4852560919210125e-001 1.6888845472902927e-001
      4.4749281416369947e-002 -6.0877945263766421e-002
      2.9801536152568348e-001 -4.5631733083978887e-002
      1.7848571798676746e-001 -1.6054685688344936e-001
      2.4270450826987688e-001 -1.3424211250258791e-001
      2.1572250281404112e-001 -1.7779082955867562e-001
      -4.8082258584131100e-002 -6.4405527958459829e-002
      -6.2183031767918551e-001 8.4670700500568297e-002
      1.0857783246358857e-001 2.0413028146176210e-002
      9.1201295772131472e-002 -1.6774374142112858e-001
      -2.1087533575044085e-001 1.9857461792331621e-001
      6.6847349858590713e-002 -6.0462771023537830e-002
      1.1593084588733937e-001 3.4918395457139262e-001
      3.5379495562857782e-001 -1.7109367958977131e-001
      -1.6675749799874728e-001 4.1535734122289246e-002
      -2.9977881697825927e-002 -2.3283636712540315e-001
      1.3049779533884190e-001 5.4522468139055646e-002
      1.5923558886510206e-001 7.1701513328403327e-002
      1.1716020179540243e-001 6.0404269445946200e-002
      1.5883778610304486e-001 -1.5722593475801994e-001
      1.0356244965318072e-001 -2.1467408854501310e-002
      2.7126182320638736e-002 -1.7181719734660941e-001
      1.0983687398859818e-001 -3.6120688710679399e-001
      2.2996699729021200e-001 -1.5329664038179366e-001
      -1.4045976590020759e-001 5.7497043808701805e-002
      -8.9458879588857537e-002 -3.7721239514669969e-001
      -6.6223366483777371e-002 5.3103021177875527e-002
      -2.3745947472911828e+000 -6.2130366722136727e-004
      -1.8453074263671035e-003 8.9599761776812933e-002
      7.4007708487464588e-002 -1.1258594499925927e-001
      -2.8007676275411225e-001 1.3348293339631981e-001
      4.8802520752381215e-002 -9.5598474256956278e-002
      1.5532922761664200e-001 7.6181462850300016e-002
      7.5919872750958600e-002 6.7117719505254525e-002
      -9.8879318861425272e-002 2.9357973142632077e-001
      -2.3547357789706713e-001 -6.7499913374243117e-002
      2.7960507780197630e-001 9.6313033822311725e-002
      7.3622180847833196e-001 3.8211070932217911e-001
      1.2997243058908675e-001 8.8328130799157009e-002
      2.6575932816114328e-001 -2.6734840892507045e-001
      5.9626707638710148e-002 -1.7060487331241078e-001
      -7.2069369633491850e-002 -1.1223556737294739e-001
      -4.8599361163867538e-002 -9.5889422026973203e-002
      1.7655304906776312e-001 -3.9742659188401336e-001
      -2.2935343130879488e-002 1.2610302592557343e-001
      -1.2436685720809099e-002 -1.7963538258145353e-001
      2.0885203488560711e-001 -6.1454460782627653e-002
      -1.3298574441594160e-001 2.0227351281713511e-002
      -1.0069291966606593e-002 -8.6246601755209679e-002
      -5.3458296369914449e-002 1.2654781594292208e-001
      1.6912057344154890e-001 -7.7969371593496678e-002
      1.8991325689075390e-002 -8.6838096968240963e-002
      1.0439797543471881e-001 -5.6526677054668281e-002
      8.1601783438311967e-002 -6.6133160260919935e-002
      4.6189509782780767e-002 -3.2713502906624825e-001
      -3.3345410746512649e-002 -5.8267880426087972e-002
      2.9448519777040383e-001 -4.1175428262478275e-002
      1.2967234085612986e-001 8.4916445709319693e-002
      -2.5713243404800551e-001 1.6361384587128611e-001
      -2.5472153441901135e-001 -2.5095316051326350e-001
      1.1513007466299825e-001 6.2190456907529647e-002
      4.3918324506620025e-002 -3.6240083624969624e-002
      -1.6410799922071735e-002 8.8649210136334589e-002
      2.2082893093830474e-003 -5.8873418380498266e-001
      -5.1468097495419474e-002 1.3832256950963401e-001
      3.7936711234857406e-001 -1.3259547505679073e-001
      9.9366094106454708e-002 -7.2453978823282875e-002
      1.3448489595920425e-002 2.1318278587262075e-003
      1.4054112923950957e-001 -1.4250003114544013e-001
      2.4210332036543401e-002 -2.7389180890061510e-002
      -4.9966406814878725e-002 5.4902011463710508e-002
      1.5511983399036444e-001 2.2427983750124691e-001
      1.2162124682786649e-001 4.4872608009124748e-001
      -3.1683097675285120e-002 -1.0405790247019570e-001
      4.7533221688308286e-001 -6.6374709763420650e-002
      -1.0682755362384508e-001 -7.9906220656566732e-002
      1.8858674618315058e-001 -4.5956124490958414e-002
      3.7418305707235644e-002 -9.1714694093675775e-002
      1.7045393368652464e-001 -4.7820194888951624e-002
      -1.3577490159580208e-001 3.8367484296797224e-003
      2.9929378496615255e-001 -1.2093490971572707e-001
      -1.1307360406369316e-001 3.5588320887236763e-001
      -5.2659962401706550e-001 1.3983834533250672e-001
      8.3385773950111053e-001 -6.8462016875492349e-001
      9.7091168685012816e-002 -3.4614922140716187e-001
      -8.1028083524828409e-001 -5.0690538996254564e-001
      3.2303266005899112e-001 7.7074502493544111e-002
      -2.8184367762142798e-001 -4.8028203195450175e-002
      -2.9285709617976041e-001 1.5942126630334361e-001
      -6.2108319537086905e-002 -7.5441997412476237e-003
      3.4679610057678745e-001 -5.1579399248470693e-002
      -3.4670720211367426e-002 7.2226763257316778e-002
      2.9886357723830004e-001 -7.4858740098549523e-002
      -4.0385528606881882e-001 -2.5116394954871396e-001
      -5.7682796410462323e-001 -4.6182614676700123e-002
      -8.7440505390276355e-002 4.3099479861486067e-001
      1.2206962132836471e-003 2.7860586487025379e-001
      3.1546896422012294e-001 3.1850232111100593e-002
      -5.8107238088873595e-002 1.6443174000841376e-001
      -3.6729269034673613e-002 -4.0275817932851055e-001
      7.4056777535972786e-003 -8.7702593141935861e-002
      -1.0699562265124926e-001 3.5922564817998520e-001
      -5.1782337823751623e-001 1.4534571440791225e-001
      1.5997163413832258e-001 -1.6670437568692603e-001
      1.0922527987662635e-001 1.1605566532051437e-001
      5.2977020767983841e-003 -4.8617927833623731e-001
      -8.8666421121724792e-002 8.6761661040617527e-002
      -1.0354906371234016e-001 4.0486640641021993e-001
      -2.8586467416079470e-001 1.1876055822034928e-001
      -4.1223511873565759e-002 -4.7284126831359026e-002
      1.9633751689837911e-001 5.7077129112426864e-002
      -1.5794917959018401e-001 1.1822336813624897e-001
      3.3736456186420261e-001 1.0783386310449500e-002
      -3.5020607918547259e-001 -2.6181202122815184e-001
      -4.8440162395144520e-001 6.6038146113516190e-003
      1.2237792952472924e-001 4.9614121997876548e-001
      -8.6577996539071028e-002 2.6551856294607651e-001
      3.4450448280950119e-001 1.4070284252144077e-001
      -3.4158043373800512e-001 -2.2315964923240345e-001
      -3.0185946308308308e-002 -3.6988261826189350e-001
      1.5004242418247622e-002 -2.6115348657807114e-001
      -1.1148563177676717e-001 3.7412455950998280e-001
      -1.8300298335113652e+000 1.3325515454947626e-001
      4.1451294640153302e-001 2.4753110652736382e-001
      -1.1623921944689189e-002 -1.7237478840218162e-001
      -3.5432337142639416e+000 -4.7172335266781151e-001
      -1.7626062176508520e-001 6.2570465114422533e-002
      -1.2367353325043391e-001 4.4305091573616873e-001
      -2.4319150282895291e-001 1.8969259324933724e-001
      -6.6463049670939925e-002 -3.0844259561268315e-002
      7.0131060025438480e-002 1.6926563704255010e-001
      -1.8438411244726488e-001 1.4581536058339703e-001
      2.5862985813502520e-001 -4.4026406713164809e-002
      1.3412758543564185e-001 -2.7487890475373238e-002
      1.9179518576446894e-001 2.4641155665910208e-001
      4.3976657368336905e-002 4.8422762117999707e-001
      9.5710921335610370e-003 1.1697923291340684e-001
      3.2840454008005943e-001 1.6902747408369559e-001
      -2.8048587974277217e-001 -5.6240337901088633e-001
      -4.1449386899363805e-003 -2.8694731358172071e-001
      2.8620532014425444e-002 -1.0509045636257142e-001
      -1.1666118613586972e-001 3.5810011809515813e-001
      -1.2051057976985364e+000 1.3572907217023678e-001
      4.2071765816979140e-001 -1.7932439654306329e+000
      3.6757119855588299e-002 -2.2480306952838611e-001
      -4.9291452115472595e-001 -4.7348291828239492e-001
      -7.1777615709306242e-002 7.5786402301976405e-002
      -9.8945097568413840e-002 4.0673314017199969e-001
      -2.5066092746216589e-001 9.9461713894135176e-002
      -1.5639363384660673e-001 -1.0610346771036325e-002
      -5.9400223249045481e-001 1.5232044376418097e-001
      4.3994832350062289e-004 1.2160900267487945e-001
      3.3942428277859149e-001 -2.7509635514883987e-003
      2.1431044924634371e-001 -2.5362360863871503e-001
      -1.4047031698218353e+000 1.1327231564371776e-001
      7.6507437940025347e-002 4.5308752820387937e-001
      -3.4746792335170579e-001 2.1988489301332947e-001
      2.8479373805827590e-001 1.8932338513507965e-001
      -1.5288841480104909e-001 -8.5619253601005674e-001
      -3.2243401885233669e-002 -3.7376008605662930e-001
      -9.5838245712168806e-003 -2.7404484187728206e-001
      -6.8758464107186099e-002 -5.7159675140746054e-002
      -4.3909615263611024e-001 9.0249900617707116e-002
      6.6698589158102978e-002 2.7686461828374531e-003
      2.0255499111257866e-001 -9.1668566298326190e-002
      -3.7007819999734276e-003 1.9809607612207014e-001
      1.5214237929012447e-001 -9.0457535032478525e-002
      1.3270097676008501e-002 -3.0232054425212596e-002
      -7.1805404875007445e-002 -6.9405950477984951e-002
      8.7250123265032273e-002 2.2675945560948211e-002
      1.9638786047248075e-001 -1.3838378522094286e-002
      1.0664460257458654e-001 2.6763119803818075e-001
      4.6115609012067717e-002 -1.2806595730054077e-001
      1.5869954591861291e-001 1.7587555103451913e-001
      -1.6952010205024043e-002 3.8576463249817261e-001
      -1.8008535904230856e-002 1.6875679483695860e-001
      2.4508939777120847e-001 9.7326353480066449e-002
      -4.1837399729504693e-001 -3.5009108509555256e-002
      -5.8467004357196921e-002 5.3848299793054888e-001
      -2.4827503293028269e-001 9.6427303889216928e-002
      4.6127614504406605e-001 -1.7648493381414770e-001
      1.4216541082138820e-001 -4.6956990500714696e-002
      7.1229336217319916e-002 1.2970866307415724e-001
      2.1767742443935509e-001 -9.9484322820779597e-002
      -9.0762381300910897e-002 -2.6202144720301146e-001
      -7.3117399278065090e-003 -1.7137490177981266e-001
      5.1443566570386630e-002 -1.0097485105993695e-001
      -8.1467386847614440e-002 -5.3230967522588137e-002
      -1.9112281476717508e-002 -1.1382719961005770e-001
      1.9921693832100454e-001 -2.3087159261801028e-002
      7.0762813931782159e-002 -5.4597154215466868e-002
      -6.9495723692306638e-002 -3.5500463942385685e-001
      5.7910135168844322e-002 1.5501152071021410e-001
      1.4365795660837630e-001 5.1046276539678470e-001
      -2.1354238155107955e-002 4.2744413263972675e-001
      6.4850103628194433e-002 -2.0018059784683542e-001
      3.0287456667691598e-001 5.5449592613859100e-001
      -2.3715084869464423e-001 1.5868399086733917e-001
      -9.2487739328971141e-002 -1.0220197677070363e-001
      -3.1423982271017431e-001 -9.0674524449373337e-002
      4.5950823087758087e-002 6.1259419376037211e-002
      -5.8214970829352779e-002 -6.0769262421494885e-002
      5.7620163170983337e-003 -3.6776698919044407e-002
      6.4572846316397342e-002 -1.8025634424518366e-001
      -3.1663593843763083e-001 -1.3733041019448756e-002
      2.9431836105836406e-001 -3.0604806106243582e-001
      1.8437927710321830e-001 -2.3342216013426392e-001
      1.2296113775737445e-001 -1.8557633458332431e-001
      1.2945621821446546e-001 -1.1627700698867822e-001
      7.9189054073444273e-002 -1.3870603260400574e-001
      5.8982966151900837e-003 4.1485238143160116e-002
      -1.7809454135060157e-001 -2.9596396809023151e-001
      -3.4455307691629533e-001 1.3130149324249962e-001
      1.1804183200252494e-002 5.3813272949008673e-001
      1.8468519374584064e-002 -4.4530833948420957e-003
      1.1040547080598949e-001 -1.4290997235545402e-001
      2.7694109430317732e-001 5.0453325658089276e-001
      3.7187437228224703e-004 1.5739239047904585e-002
      -4.6439541584845208e-002 -1.3607300440648654e-001
      -1.4218539612874218e-001 -1.3837637020739285e-001
      -6.6564532233209919e-002 1.1763990842833562e-001
      9.8442505358875498e-002 1.6653228900320119e-001
      4.2713025193315622e-002 -5.3448141366709369e-002
      2.6577054146653112e-001 -2.1551473305627797e-001
      -9.5576185877684197e-002 7.0351576002232333e-003
      2.1008664652322118e-001 -2.8027253920204337e-001
      -1.5355360704298379e-001 -3.5269752104474744e-001
      4.1171352268771055e-002 2.3261654377987404e-001
      1.7072612846507990e-002 -1.4589780495438268e-001
      -1.5469839269035286e-002 -4.0759374833865533e-002
      1.3144838109803145e-001 -9.9990032659361738e-002
      -5.9579348517802957e-002 8.2627329936775323e-002
      1.1650718995080357e-001 8.6015996590593169e-002
      9.3970596174712623e-002 4.4215338656957859e-001
      1.5212087780837258e-001 -4.6385475745620713e-002
      -3.0353913478544804e-002 5.3224071069716418e-002
      3.0164031459037288e-001 4.8983161388167856e-002
      1.2899209132412115e-001 1.8429421665711682e-001
      7.8076658109779623e-002 -2.3861346175364576e-001
      -1.8544224684079263e-002 -9.0197863303957251e-002
      8.3408149230426623e-002 1.7686107608637775e-002
      -1.9816141333828782e-001 -1.2665240800078081e-001
      5.4810663293149667e-002 1.9043300042748104e-001
      4.2163219031672261e-001 -1.2419752005628948e-001
      -1.7325160090339453e-001 -1.4764426002937039e-001
      6.1040708955832390e-001 -2.2181960465797224e-001
      -1.6969556603702124e-001 -4.0924733377697899e-002
      2.9613596406525011e-001 2.6293957738438328e-001
      1.8149106159129499e-001 4.0422519253569301e-003
      1.0432964792383644e-001 -4.6993501639092591e-003
      4.7556773750665214e-002 -8.2296986110686185e-002
      -2.1404911650087619e-001 -2.1066107655752800e-001
      9.9043401582698407e-002 1.4181544258530313e-001
      3.7282079844582772e-001 1.1688408681958476e-001
      -1.0614958184690948e+000 -4.7568811749596082e-002
      4.7563478162656075e-002 -1.3497679912227137e-001
      -4.0914093190916098e-003 -1.3544244912349249e-002
      -1.1400496900297176e-001 -2.1222764183109828e-002
      2.5636595372408727e-001 -4.7939459940785072e-002
      6.4457658849236044e-002 -1.6647837988503111e-002
      -7.5944499133235477e-002 1.2142238439846942e-001
      -1.2897153817086388e-001 -1.0639469591333377e-001
      -2.5027999510248339e-001 -2.9326063505217576e-002
      -8.0782406693006292e-002 -1.3303643108497826e-001
      -2.0104038719910369e-001 1.1358348793251147e-001
      -2.5939182053427956e-001 7.1823734617926807e-002
      -3.2592184938536134e-001 1.0198585546866407e-001
      3.5437106926739870e-001 2.1045690804259171e-001
      -5.4551396472417135e-002 2.9671663767168076e-002
      8.0299309186084633e-002 1.3147407930396010e-001
      2.3629866532796875e-002 3.5821351990560128e-002
      -2.4818458771583365e-001 7.8838017141904439e-003
      -1.8264523856130246e-001 -1.5044652968731451e-001
      4.5609495329651506e-001 -3.0631716771510148e-001
      7.4782963291011417e-002 2.1469157513499051e-003
      4.2174730028479088e-002 -1.0849002531593427e-001
      -5.6906247436014037e-002 -5.0326526074963995e-001
      5.9733882030578826e-002 -3.0091223082841741e-002
      1.9234761600078537e-001 1.4083391681775317e-001
      1.6626358971276287e-001 -8.1876799918278259e-002
      1.0077900293033829e-001 1.5840655534849127e-001
      -2.3452324999299907e-002 -7.7064582725606678e-002
      -1.1107849862163317e-001 -4.0911733613187279e-001
      -2.3567424771666934e-001 -1.8651659547070004e-001
      -8.2429255451752073e-002 3.8344031528260381e-001
      2.2102862244254945e-001 -2.5181157330392795e-001
      -7.9021453350288748e-002 1.4676896738321829e-001
      9.9638478436927996e-002 8.6470313095370774e-002
      -4.5662315285973830e-002 -7.7474070924852229e-002
      4.3837721350963872e-002 2.8847781889479390e-001
      2.1395080619263387e-002 1.8785399168725272e-001
      -2.9617678645601819e-001 7.2500839493256164e-003
      -7.9789214204878028e-002 3.9472017986071806e-002
      3.2713236150157754e-001 -3.0427845915433460e-001
      -9.1594935757879137e-002 -6.2403084051713360e-002
      -2.2223196063892035e-002 4.6246105732212314e-002
      -2.3701600087187721e-001 -3.9793504011734526e-001
      -1.0016667229214393e-001 -2.1340655588985895e-002
      1.1642004373841341e-001 -3.2273094539361818e-001
      7.4436647441206469e-002 3.9789375928619294e-002
      7.1773200049184513e-002 2.4618179297693180e-001
      1.1793057990826880e-002 -2.4912212229593793e-003
      -1.0167539624210967e-001 -2.7857539796440250e-001
      6.1602661473855749e-002 -4.9940937459419826e-001
      -1.3875624540058037e-001 6.3097305437642779e-003
      -1.0233694407092238e-001 -1.0072469711459298e-001
      -4.1011087568318665e-002 8.9587660890840266e-003
      4.7872212701307842e-002 4.7127931152557534e-002
      3.4213420712885585e-002 -4.9277431638864409e-002
      3.0438679014943942e-001 1.3363779192358274e-001
      4.6206139827621250e-002 3.1963586147197587e-001
      -1.6594693134028937e-001 1.4803467501048720e-001
      6.4540526559153946e-002 -1.1328113242869416e-001
      1.1607964035973310e-001 1.9928676118823514e-003
      -6.7973255118152082e-002 -4.6805281220840596e-003
      -8.9476267975444848e-002 -2.3302253223000804e-001
      -2.6179951599638507e-001 3.0059001305766836e-001
      8.8144472212440414e-002 -1.0411529675023816e-001
      1.6890555872175081e-001 4.3975984165287287e-002
      3.5806347023166492e-002 3.3157754560155947e-002
      -2.4672643130318986e-002 6.5265295106517324e-002
      5.1744457848879322e-001 -5.4351564652235847e-002
      -1.3712428333565752e-001 7.9655790704153392e-002
      2.5159012856237345e-001 6.1436060918788199e-004
      -5.8422690679280069e-002 4.8851144065296212e-002
      -5.8743488450372375e-002 -1.2464703177938800e-001
      -2.4549647934978207e-002 1.5376288964390463e-002
      3.9712923168261006e-002 -3.2689850281312133e-001
      -1.9078458753713792e-001 -1.0292752759229332e-001
      1.4376069636697048e-001 -8.0675084502664390e-002
      1.8345525478106278e-002 1.4235202878991149e-001
      4.4709224695757714e-002 2.1879755002810572e-001
      6.9230855175242065e-002 -6.9117481325687208e-002
      -1.5249679941114305e-001 -1.1728536531552344e-001
      -1.0128542377698309e-001 -6.6049711032171998e-003
      6.2026486652255554e-002 3.2986583065058056e-002
      -1.9867735507027484e-001 -1.9582928741172023e-001
      -6.5267060570480193e-002 -1.6580473115670957e-002
      4.0125108346541670e-002 -1.5087116749261398e-001
      -1.7592715655175752e-002 1.1885658114545390e-001
      -5.2068372666351566e-002 4.8646837332643737e-002
      4.9377803713082902e-001 -4.0264277427503270e-002
      -2.0891718866824296e-001 9.4102123193355661e-002
      2.7730750594903941e-001 -4.8729260004767773e-002
      -5.9242472345839181e-002 1.2936425439182958e-001
      2.6225712884883096e-001 -1.3247142880440810e-001
      1.3922322890542407e-001 3.7271431040238013e-003
      -3.6093025230170328e-001 8.3791078739461580e-002
      -9.0850269431142439e-002 4.0982660448594048e-002
      2.3788233236159465e-001 -8.4390146259491997e-002
      3.0379298156091827e-001 1.5980534274790323e-001
      4.2857073673515322e-002 1.0824010666488361e-002
      9.7502446797141401e-002 -1.8873432915897545e-001
      6.2779905861812840e-002 -1.6891016010111243e-001
      -1.3073323123019298e-001 -1.2216014062446896e-001
      3.6702771710599352e-002 6.0222749497412430e-002
      2.1892442263082589e-002 -1.6075661684840151e-001
      3.4325327307976425e-002 6.6991870489715943e-002
      6.6803520636436714e-002 -1.6132942484763416e-001
      9.7171068829039045e-002 1.6040781003797244e-001
      -2.0530021318778202e-001 4.9906409154221405e-002
      2.5301426912239450e-001 -5.1233176185803753e-002
      -1.2360093201493462e-001 1.4742575029570298e-001
      2.4445966764354798e-001 -2.3182175665388666e-001
      3.2770444842235041e-002 4.2002692757883778e-002
      2.7834123816199641e-001 -1.6544226214652258e-001
      1.0690658767558921e-001 1.0648656497777259e-001
      -2.2646618822739231e-001 1.0070907727736292e-001
      -3.4020067945999433e-001 1.1879899469136010e-001
      7.1527007839369466e-002 1.3724128948572803e-001
      1.2560519787256053e-001 1.6531183576983410e-001
      6.1641848628239883e-002 -2.8616974005910129e-001
      8.6070194376379083e-002 -3.0585674721232708e-001
      3.7289253948949918e-003 2.8495896572553497e-001
      -1.4504798667123586e-001 -2.0235752938275925e-002
      4.4196953402570023e-002 1.7408377283379053e-001
      1.2154441624935227e-002 3.7724918123689485e-002
      1.6277325292953207e-001 2.7474338473790655e-001
      6.1432978835416492e-002 -3.3167203829323665e-002
      -5.5767573489250967e-002 1.0132927960103144e-001
      -3.1239989525059544e-002 5.4020207975584336e-002
      1.5695038026727778e-001 -4.6034935941379140e-002
      -1.1448486945734719e-001 5.2336705063650714e-002
      -5.2881126619654439e-002 4.2299434551641195e-002
      -4.5391621873836968e-002 1.2156984257269091e-002
      2.7452283298077579e-001 5.9560297969912072e-003
      1.2940542560601431e-001 1.1838109828357130e-001
      4.7397702814082274e-002 3.1375189711795211e-002
      -1.9876389205023798e-001 -1.4719076576548087e-001
      2.5884194793078120e-002 3.8483868358958048e-002
      -8.7767631732067641e-002 -3.1846205934027871e-002
      -5.3668547637992781e-002 -2.0230862656152312e-002
      9.1252349804009873e-003 9.3791393590627256e-002
      -4.3232655314716251e-001 4.8390903998727025e-001
      -1.0152250354024063e-001 3.5185519992766395e-002
      -6.6378061986278977e-002 2.0229850107460007e-002
      -2.0704083386881303e-001 1.0794856936020199e-001
      2.7881789888153019e-001 1.8226411142591500e-001
      7.4330663653164084e-002 -2.3429766110414439e-002
      -2.6879376787408114e-003 1.0530676132734723e-001
      -1.3437949861049701e-002 2.3762092271475174e-002
      -9.7074484121801086e-002 1.1705226666329336e-002
      -2.3854575550997587e-002 -2.4649072523786363e-002
      -1.3405851815922099e-001 2.7986582545691634e-002
      -2.0340153364191627e-001 -1.6792472191785432e-001
      -4.5275511436946254e-002 -8.5738239163292396e-001
      -1.2377457712820346e-001 -1.1551486823162210e-001
      -6.4878510942652429e-002 -1.7304763225157248e-002
      -5.9496518865662137e-002 -2.8198632119410449e-001
      -8.7071105155623520e-003 -9.3788091789328860e-004
      -2.4404563818991265e-001 -1.0581940412568742e-001
      -7.2351304770695943e-002 -6.8504147141500776e-003
      6.5472727143856080e-001 2.7212830098283936e-001
      -1.8777535593507477e-001 2.5660933685556836e-001
      9.8150107405657078e-002 2.8445170837690331e-001
      -9.4615211677381295e-002 -3.4608900234816392e-001
      -1.2096226484773295e-001 -9.7847047635470474e-002
      1.7317851810319362e-002 -8.1382208855028379e-002
      -9.1005250277450295e-002 -7.1044205612714545e-002
      -1.9147102807111568e-001 8.9608866957331362e-002
      -4.3919626215322069e-002 3.6721333124343225e-002
      -1.6216503815625247e-001 -3.4027868374332818e-002
      -8.7851913882693464e-002 3.0128878321184038e-003
      -8.6646869687597203e-002 1.1430101883366090e-002
      -1.5101785819233329e-001 -1.0809907561128573e-001
      -6.0162112501858350e-002 -2.5634604841004649e-001
      -1.9145856492140872e-001 8.3525821784074444e-002
      -1.5909187091021220e-002 3.0982428029495850e-002
      2.1390412764608097e-001 3.7719398623294716e-002
      1.2511741750958226e-002 -5.6909372545271009e-002
      -3.1569321051968263e-001 -1.7916831686797247e-001
      1.2591024341546514e-001 7.0917912402543637e-002
      1.4634690157441813e-001 1.4392866934278567e-001
      2.5274331719726137e-002 -6.5081629033752836e-002
      2.1087207203980141e-001 2.4349755274989154e-001
      2.1433357506063257e-002 -1.2321663880401777e-001
      -1.9191817460677260e-001 -1.8162462583753930e-001
      -6.2814876945919487e-002 -4.0184063159489809e-002
      -7.3040293484354785e-002 -9.3242023077243663e-002
      -3.1686889242941346e-001 3.5173324300127651e-002
      -5.5522987119292821e-002 1.0414827263819038e-002
      1.4694591421551856e-002 -3.0952807428942936e-002
      -2.7945243939533099e-001 -6.5780244325815473e-002
      -7.0561546961901755e-002 1.7056359945167205e-002
      -2.3623387362876214e-001 1.5768393543636161e-001
      -6.7332703849845271e-002 -2.0083404881863504e-001
      -1.8000443283385645e-001 1.2010708906798928e-001
      -6.2725752812113717e-003 1.5845472197855073e-001
      2.8119787071948332e-001 1.7335072964744888e-001
      -1.0223544245521782e-003 1.6999321700652371e-002
      -3.5036655159872399e-001 -2.2884736824623061e-001
      3.8792449203613921e-001 2.4651815128263710e-001
      -9.3316060015786115e-002 5.3135410582526979e-002
      -1.8383721143233342e-001 -2.5253628535695583e-001
      1.4642072702764108e-001 6.3834790531063515e-002
      -1.2164620875499405e-001 -1.8393582107326800e-001
      -1.3464107148960067e-001 -2.0362892789430517e-001
      -2.2323953114382880e-001 -1.2005116153028735e-001
      -1.1532903438268571e-001 2.8033363222304108e-001
      -2.4072062934971034e-001 -2.2401010709751490e-001
      -6.1153963220485143e-002 3.6582699837788217e-002
      -6.6611407406670965e-003 5.8829193546001871e-002
      -1.2465060363293040e-001 -7.7477730855128560e-002
      -5.0408005565171964e-002 3.5708921897482981e-002
      -2.2614435615125189e-001 1.5514544090853602e-001
      -5.3462936614531033e-002 -5.6948200758061389e-002
      -1.6359940573375700e-001 9.4265085790774222e-002
      -1.2171063207344270e-001 6.5109508407107011e-002
      1.6901841433731737e-001 2.0743069456153290e-001
      3.2782359709127712e-001 7.7125963115474122e-002
      -2.5470728197598902e-001 -2.2773398507479159e-001
      -3.2599626051713307e-002 2.0783718217704594e-001
      -1.5260621586446058e-001 -1.3771860289800772e-001
      7.4850945873790820e-002 -7.7758718629021673e-001
      1.9136721432177950e-001 2.9470710684042367e-001
      2.0291243690140275e-002 3.4859576864238774e-002
      -1.1964500176380720e-001 -1.0124652635902408e-002
      -7.9304478409247293e-004 -8.5315973128779796e-002
      -9.0150608508454702e-002 -7.9564912232851517e-002
      -1.1231668469757601e-001 -1.9397688625256695e-001
      -5.2418990433741895e-002 -1.1216173885741136e-002
      -3.6246309936961284e-002 -4.6718086502308895e-002
      -8.3893005740523760e-002 -2.8107470614855878e-001
      -2.8500738597943004e-001 2.1258781192093300e-002
      -4.9250693767524384e-001 1.0185957262900018e-001
      5.2505492000062333e-002 -4.0405659435297767e-002
      -3.9614378247113339e-003 -6.3559754149907860e-002
      1.9453535872951544e-001 -3.9535419113956435e-003
      -8.7381723505076642e-002 2.1788656699326606e-001
      9.7359191855378849e-002 3.3172539159089537e-001
      -4.0768190844183044e-001 -2.0389352277558381e-001
      -2.4753421072248238e-001 -1.5389817323395427e-002
      2.1998111446656535e-001 1.6229548156859808e-001
      -9.4361650362466049e-002 -4.3760836547675139e-003
      1.6166673556483616e-001 1.5306137080967777e-001
      -3.5987531381697940e-002 5.3321707554645544e-003
      -1.9569691329023356e-001 -1.7991762401035793e-002
      1.3475638021651890e-001 1.3007168753342876e-001
      5.1009219524910346e-002 2.6436076334725427e-004
      1.5254445164480027e-001 1.3328998256380595e-001
      1.7681154085986803e-001 -2.6465711834247224e-001
      8.6830672547135668e-002 -1.0171570467495984e-001
      -8.4999803842831068e-002 -4.3598804046952096e-003
      -2.8494730003696833e-001 5.4088626843310339e-002
      -2.2100821216695923e-001 2.1718045615325260e-003
      5.9421713917435719e-002 1.3393512559775399e-002
      5.3711956365715026e-002 -2.8533445704112738e-002
      -7.3735023738497982e-002 2.0314922874716954e-001
      1.4304439512070713e-001 2.1472746613677968e-001
      9.4966440223810039e-002 4.4712745880749732e-003
      -1.3560682209995392e-001 -7.7708438342206313e-003
      -6.8580234601398823e-002 -4.2846401154588050e-003
      1.1937527341101614e-001 2.6026724721614081e-001
      3.6339632507468599e-002 -3.7813093715526058e-001
      1.6186454418578908e-001 3.8317162027849500e-001
      -2.0662841713454122e-001 2.3023484885126566e-001
      -3.1918709673375567e-001 -9.1700675748348476e-002
      1.3844644981408294e-001 -2.1431738302480574e-002
      1.1335134526085176e-001 -1.1197691010498060e-002
      -6.1933450160479631e-002 1.3400425762211812e-001
      2.1577137807349558e-001 -2.4213659529267853e-001
      -3.9219237629922105e-002 -1.0143871545323924e-001
      1.4602007668316908e-001 7.0965944525738539e-002
      -1.2245775207780958e-001 2.9466668387413460e-002
      2.5904572350963023e-001 -3.8091163535707254e-002
      -1.2104813854308999e-002 4.0744159873182767e-001
      4.8421710428991217e-002 5.9955883488280459e-002
      -1.4717176688696457e-001 2.8945516683788081e-001
      2.5717350343433870e-001 2.2244219867783777e-001
      -1.2635084083549378e-001 -9.4236033907301453e-003
      -1.8248985889770256e-001 3.9674305109198893e-002
      -4.8141107584937511e-002 -1.9335065319875058e-001
      2.3595086808827467e-001 2.0154941271804994e-001
      -1.2185691937678572e-002 4.7422574418347591e-001
      1.2502076253703440e-001 1.1032123632290733e-001
      -2.0653268931482432e-001 3.1535962071590401e-002
      -1.0192919964965341e-001 -4.3514696612530079e-001
      1.4607753192376299e-001 -1.6162387796064834e-001
      -3.0557886508667670e-004 2.9377613097629308e-002
      -8.0515450796155436e-003 -1.7842829761676562e-001
      -1.4829791868017228e-001 7.1983795704602185e-002
      2.2345646702366553e-003 -9.6297875990824205e-002
      -4.2385894203236801e-001 4.2513265848768869e-002
      -2.4110643271218032e-001 1.8730251497225542e-001
      1.3046524638178264e-001 -1.1897744589534710e-001
      -2.4767122550310688e-002 -5.2309022985843619e-002
      9.4940066164557857e-002 -3.5672591173679785e-001
      2.6562659114471962e-002 2.6548942858029273e-001
      2.5673472455682628e-001 1.3201267611443690e-001
      3.0056451155376748e-002 -1.2650851427487817e-002
      -1.6202460379629263e-001 5.3562164298229568e-002
      -5.3372404236115611e-002 6.1955056934053822e-002
      -1.8481835768461993e-001 6.7846114945944769e-001
      -5.2741090383336664e-001 6.7885837474798338e-001
      -1.9149225669715289e-001 7.7072922081994275e-002
      1.3514392980001333e-001 -7.0888642870879190e-002
      -1.0250249477666486e-001 -4.3558849347377276e-001
      -4.2116301647517645e-002 7.6258746121318388e-002
      1.0629935543194997e-001 -4.9652184291834652e-003
      -2.6745416639936404e-002 -3.0104169675462228e-001
      1.1396172614688671e-001 -4.5827783577437615e-002
      3.0967030517495737e-002 3.6111772410865961e-003
      -2.6551653759938754e-001 2.6349260249796158e-001
      1.9427848980758430e-001 -1.3153173727083206e-001
      1.0282298083038606e-001 1.5274109849702008e-001
      1.1123338568850916e-001 -2.3725153418270439e-001
      7.7577657629427796e-002 2.0896177079550968e-002
      1.6850167168148575e-001 9.6067965516787576e-002
      -3.9719062867027933e-003 9.5001225265493233e-002
      8.3326718505731534e-002 3.8010734594766948e-002
      -4.5952826576461374e-002 -6.3835227630692753e-003
      -9.6184516584467195e-002 -1.9673921648607917e-001
      1.2602131865571697e-001 4.5367179443217928e-002
      -4.3505814059546351e-002 -2.6946289665894251e-002
      4.0967441487369238e-001 1.6168112633935430e-001
      -5.1150010283006246e-002 -1.2161816548094748e-001
      1.5782646838706879e-001 2.8383222417603687e-001
      1.1692292171813709e-002 8.7169179414386094e-002
      2.7798151088842898e-002 1.5048863531773699e-001
      8.9987016495825627e-003 -1.4171616075910301e-001
      -2.0693440237108685e-001 3.9810476891102516e-002
      5.1630395062678587e-002 1.0640586651525072e-001
      -5.3738545807575526e-002 5.0452163748347253e-002
      -1.9970848889023815e-001 -1.8084194544797129e-002
      4.9831949812780184e-002 -1.4961548373252573e-001
      -2.0886743962939103e-001 5.8920932753861309e-002
      -3.1442932919900231e-003 -9.2333758667358573e-002
      4.3604003768859471e-002 4.2075230392246338e-001
      -6.8447582317029265e-001 2.8596077015591834e-002
      4.2117704065491104e-002 -3.9845620130810616e-001
      3.7260685538802840e-001 1.6350446011940714e-001
      4.9371852829681939e-001 -3.9006087233803180e-002
      7.3803261247297816e-002 -2.9119442024650966e-001
      -6.2698790485974398e-001 -1.1907456799922002e-001
      -9.9742309351369329e-001 -3.5712472633626902e-001
      1.0675927944111721e+000 -4.0363246375038869e-001
      -7.2218985391893253e-002 7.3170850933665918e-002
      9.1855955501109282e-002 -1.8231013571653656e-001
      -7.3783689514846240e-001 -2.4200701974857650e-001
      -7.9070049730631364e-002 2.7966567754053552e-003
      -7.6542976740062690e-002 -1.2565745100594600e-001
      -9.0575400462670111e-002 5.7248205042910304e-002
      -2.4828109853723621e-003 -4.1342682883870094e-002
      -9.6195701411711229e-002 1.2273192526794412e-001
      7.7712579352440192e-002 -3.4459158846339472e-001
      5.6278091963134835e-001 -6.9529619362166684e-001
      9.1131099308495689e-001 1.0140958176721288e-001
      5.1503439232834769e-001 -4.0169044644484918e-003
      9.4104868117372828e-002 -6.6902937015430730e-001
      2.9325022993834848e-001 -1.1286644492319860e-002
      3.2876988624477438e-001 9.5083732954225189e-002
      -1.0222941820025827e-001 -2.2294897175999354e-001
      -1.4095499640943099e+000 -7.1267635061628232e-001
      8.2927450637028333e-002 1.1517815199200832e-001
      -1.2654732324687948e-001 -5.4236614403945704e-001
      4.6566064507957144e-001 -4.4632226635530299e-002
      -2.1922909567418483e-001 -2.2911960206994925e-001
      -3.8428186219940996e-001 -5.5524801359130826e-001
      -5.9066874709702621e-001 -7.2072740702013569e-002
      2.8242159195720786e-002 8.8040442449231079e-002
      2.0099417571505507e-001 -4.2610470515925725e-001
      -2.0597187519529656e-001 -4.6601501434977363e-003
      4.3834570686314784e-003 6.4136624843571299e-001
      2.0602962115901099e-001 -1.0902263381677245e-001
      -1.7332485195483177e-001 -2.1052059810124785e-002
      1.2486336268865960e-002 -7.9266747789304731e-002
      7.2574701984313850e-001 -3.9893484168834964e-001
      6.4903636867205822e-002 1.0140594734441490e-002
      -5.2649381839508909e-002 -6.1619998242115087e-002
      4.3709582224719296e-001 -2.4323912641001202e-001
      4.7404815539846844e-002 7.4899182931538688e-002
      -1.7849750610524237e-001 6.6369161299389079e-002
      -1.1248800353884540e+000 -1.6472675463146996e-001
      -1.7630330314954376e-001 1.7768158524356006e-001
      -9.6329295637149606e-002 -5.0521904261413197e-001
      9.0847639231300986e-002 -6.2067567821059189e-001
      1.1068626066257259e-001 -1.2784908662154926e-001
      -8.6701631474708649e-002 4.6543307403116522e-003
      -1.0261356192920761e+000 2.2004667447594453e-001
      2.3244524925696522e-001 6.0066281472268046e-001
      1.3012093870228916e+000 -2.1185082133014549e-001
      -2.4882027560033726e-001 -1.5424336211102763e-001
      -6.3798923126627405e-001 -1.0630869374574688e-001
      -1.1182710106151255e+000 -3.2071369576498238e-001
      -3.2978364318569481e-001 5.6314088884626212e-001
      -1.0560308946993044e-001 1.5339908213271392e-001
      -4.3481339813929570e-001 -4.6781790453451835e-003
      -1.9556387730893954e-001 -5.2538679986540437e-001
      -1.6256035536587923e-001 1.9903010015827802e-001
      1.6222022577675779e-001 -2.5854389708777573e-003
      2.8031576234063049e-001 -9.9087197764078289e-002
      3.7206166141775426e-001 7.9475855906556869e-002
      6.2858798826189832e-001 2.9893368676700149e-001
      1.5026103678069921e-001 -1.3309340476585760e+000
      -2.3652078993529668e-002 1.0253616223680179e-001
      -1.4286345510225101e-001 -9.3839961481240020e-002
      3.6233231644565343e-002 1.2188046200426592e-001
      -9.3968212558027647e-002 -6.3387250847558127e-002
      6.1564346407862638e-002 -5.4027132489080687e-001
      -4.2719752727411897e-001 -2.0869457518015569e-001
      4.0316452583104034e-001 9.7501869598580843e-002
      -4.2944895762538314e-002 5.5826227655057688e-002
      -1.0326744119136057e-001 -1.5720771775593295e-001
      1.4998900766828288e-001 -2.1971961302449292e-001
      -2.9128890661124140e-001 6.8436990737681258e-001
      1.1470700457150798e-001 -2.4440034752861170e-001
      -2.6201763553443641e-001 -1.2520045424065848e-001
      -8.0123530088923156e-001 1.0589489959745704e-001
      -6.5743913672376753e-001 7.1675063747150392e-001
      2.4878931691715084e-001 -4.1456227793706918e-002
      3.1873990656369026e-002 9.0281160702259389e-002
      2.9534804125256892e-001 1.8928151624560474e-001
      8.5364514403843117e-001 1.7249902516702396e+000
      -2.9620051393166758e-001 -1.7237955427332444e-001
      -1.7150486066997534e-003 3.8656379315616038e-002
      -1.3896780850398691e-001 1.1134690570087234e-002
      4.1374840870090947e-002 1.9586179216281743e-001
      3.4843696296022869e-001 2.2568860987407396e-001
      -9.1108067955253169e-002 2.2746752719322882e-001
      -1.9744166707453653e-001 2.8778085821828198e-001
      1.1778705512548462e-002 -4.3469820662725356e-001
      1.7793206537459044e-001 1.7285010412232854e-001
      2.0199731733385262e-001 6.1670522489358870e-001
      6.0297695848660116e-001 -1.9995735383843577e-001
      1.4851890746941229e-001 7.0788265812669268e-002
      -5.1901516788067636e-001 1.6476054526809847e+000
      -1.5146223444693291e-001 -4.8718789177401350e-001
      -1.4003896612039383e-002 1.1798982037299195e-001
      1.3391871224742962e-002 -2.5038257286410154e-001
      -2.4437731999135526e-001 2.3503335767723688e-001
      -5.7232515745599649e-002 8.2884600429806068e-002
      -3.2510321264788317e-001 6.6161826713944757e-002
      -1.9062300942549310e-001 -1.3192172675156502e-001
      -3.8595529605521157e-002 -3.4672186411583317e-002
      1.1034883986314378e-001 -2.6301852069232345e-001
      -4.7641331935149911e-002 7.7058835956255856e-001
      1.6709423522247843e-001 4.8467539990826605e-002
      -3.9320883468493339e-001 7.9236725727429527e-002
      -1.0316851496428543e-001 1.6888535336981003e-001
      1.9043093455566440e-001 3.4396185665674078e-001
      -2.4299090199711876e-001 -1.8876077987580370e-001
      -8.6760036996318138e-002 1.8982036166806918e-001
      -7.0713873867221388e-002 -5.4650804439354835e-002
      3.2592144412509477e-001 6.2633787080197145e-001
      1.2753584970990650e+000 -4.0607436740304692e-001
      -1.0268535719796354e-001 -3.0691483963419065e-002
      2.0039606748119115e-001 4.5702183856458439e-002
      9.2631278057001498e-001 -1.2331335419175489e-001
      -2.0905072947100679e-002 -3.5423816502287070e-001
      1.8011506321318643e-001 2.8380690557192511e-002
      -4.2407731289893197e-001 -2.2669940984224182e-001
      7.8178074967054934e-001 -1.2592206261762684e-001
      -2.2042656748517650e-001 -2.4203964205824224e-001
      -2.2491733762666100e-001 4.3989616293178946e-001
      2.0267686783247249e-001 -5.9186771378766982e-002
      4.2028441657461724e-001 2.6440717897099952e-002
      -1.4757510031053570e-001 7.6233107173838133e-001
      -1.5916723631971672e-001 2.0820320830178410e-001
      3.7591454048013631e-002 1.7348533668601412e-001
      -1.2754823223969902e-001 3.9901746790203846e-001
      5.7534812234535972e-002 -1.3272441018346992e-001
      -5.5312442139629525e-001 5.9545574103057941e-002
      -1.4858217249131132e+000 3.5272823081957044e-001
      2.1640231395799675e-001 -8.9572502529348730e-001
      1.6476323435427162e-001 -7.5882572179993757e-001
      -1.4183098641424730e+000 -1.4703797156418492e+000
      7.3630926527382345e-002 -9.7256107198003858e-002
      6.5133627214244860e-001 6.3388140095333778e-001
      -1.2690378053047005e-001 1.7103702457749049e-002
      5.3474492011889829e-001 -3.8072999751636422e-001
      1.4144957084970944e-001 2.1691715678393883e-001
      7.1094111628033585e-001 -4.1535977050740747e-002
      3.7673409665143937e-001 -4.9751760648895305e-001
      2.5023553422623532e+000 1.6188345099177468e+000
      -3.1286772327033354e+000 1.2626829437171183e+000
      1.2748368211100777e-001 1.3116683126514315e+000
      -1.8294556845680401e-001 1.9353443839260107e+000
      6.3389971418185831e-001 4.0098531910567986e-001
      -1.1844883025680618e-001 1.1059067763078073e-001
      -1.0887017413647905e-001 -2.2615849624008361e-001
      -9.6316968878741305e-002 -8.7989473166473917e-002
      -4.9540007491519183e-002 4.9477858312245090e-002
      -2.1586188645899571e+000 1.6495564540158200e-001
      1.5112729667546593e-001 -3.0702540887186482e+000
      -2.0648382144894012e-001 6.2935122862039158e-002
      -2.6180845271952924e+000 -1.5463675215594592e+000
      -2.0896758965859363e-001 -6.3967646624034841e-002
      2.9989255349228000e-001 2.3641681163948322e-001
      -8.4289318414797709e-001 3.4131442994120315e-001
      7.6739179898400156e-001 9.4723510129763391e-003
      7.7679236582432226e-002 1.0636355090940279e-001
      1.5765356588933097e-001 1.7717214613959686e-001
      1.2053095949761770e+000 3.2261760612987231e-002
      1.2819648963107227e-001 7.3440317323958104e-001
      -2.3626548890350687e+000 3.8901195826509227e-001
      8.5746153284663978e-002 4.5401546509106966e-001
      -3.8172908942639736e-002 2.4095748586200174e+000
      2.5178080113582940e-001 4.9105856717663360e-001
      1.0306412637597635e-001 1.6989702894644194e-002
      -3.5789257589929452e-001 -1.1191735109863325e-001
      -6.3076017890723507e-002 4.9494729487415137e-002
      3.8320177690097164e-002 -6.8737272739590335e-002
      1.6743928097123709e-001 1.2417537643572668e-001
      2.8480582558794354e-001 -2.8630933542013898e-001
      1.6150627830707207e-001 2.5507901447420350e-001
      2.6902070400062533e-001 -1.7079628896886750e-001
      1.5517515914511368e-001 3.4693115950715378e-002
      -3.5506403376859175e-002 -5.6275141165102835e-002
      3.2862421524126911e-002 9.7362570385992150e-002
      -1.0192158235200496e-001 -1.2480903336364114e-001
      -8.3032907985138196e-002 2.4123905791684403e-002
      -3.7561141267325113e-003 -2.6394282064566438e-001
      1.0856679024626517e-001 2.5787435189884916e-001
      6.8332908276608553e-003 3.1927370155673054e-002
      6.9631834491384381e-002 5.4226717236722712e-002
      1.2094659543343755e-001 1.6374252473140952e-001
      3.7716108509218443e-002 2.4234436102353060e-001
      5.9409953098424971e-002 1.6845257385850435e-001
      1.4424809945185757e-001 -4.2165092200983953e-002
      -1.0669689937576296e-001 4.1360780462738000e-002
      -9.6130905950169987e-003 -1.6949701232371148e-001
      -2.1692282997696523e-002 8.3511101422426584e-002
      2.0198513599199802e-002 1.5071025713615721e-001
      -1.3033703950882697e-001 -4.7988852453145471e-002
      1.1559323385319459e-001 -1.5442243831091831e-001
      -2.0019706566141859e-001 8.7267340558080969e-002
      6.6936820317106993e-001 1.9972952894234380e-001
      5.9716058283131000e-002 -4.1817698783780377e-001
      -5.4668614908070887e-002 -2.1353268729086498e-003
      6.2785425487510621e-002 -2.0375030656663348e-001
      -1.3830945744646297e-001 1.0065497974411125e-001
      -4.6278360616221165e-001 1.0946327268446243e-002
      2.7013044011682785e-001 -2.7258128316783170e-001
      -6.5952408160519249e-001 -1.9263656798467713e-001
      2.8002482586338662e-001 -6.0080010848925246e-002
      -6.6976896293808363e-001 -2.5691232572915190e-001
      3.1860040235967731e-002 -2.6608064241338480e-001
      7.8661423530515862e-002 -8.6672930707246285e-002
      -3.1634552941516864e-001 -7.1147105600066074e-001
      6.3238723542228370e-002 -3.0037635316211647e-002
      -9.6480340511055487e-002 -3.8165542941059345e-002
      1.2451812450693460e-001 -5.3850501461021626e-002
      1.0888934968415526e-001 4.1621975666509929e-002
      4.1984776956413179e-002 1.1692735776183783e-002
      5.6221441178131958e-002 -1.0152900565566111e-001
      4.7365048976633004e-002 -9.2135993972871866e-002
      4.2436359067484303e-001 3.4575771543396874e-002
      1.2535551152151111e-001 9.3090388809499408e-002
      -7.1883129653025180e-002 -1.5326020192858222e-001
      1.6676287747576468e-001 -5.1237077968792274e-002
      6.4778530595171163e-002 -4.4330093032137097e-001
      -1.4631414583168331e-001 2.3882645163960239e-001
      1.0712562803949621e-001 9.1636021132854323e-002
      1.1072762482771807e-001 -3.6840106609962023e-002
      6.0112697090307377e-001 -1.1150568290574261e-001
      3.5076669235042018e-002 9.0069143272526478e-002
      -8.9255935096635944e-002 -5.0834728090134090e-002
      6.8604588740442660e-002 1.1487432450694343e-001
      -3.6077238991274602e-001 -1.0783603550792975e-001
      1.9204134984945886e-001 -1.8928347933032535e-001
      -4.3800723253501095e-002 -1.0636445031594359e-001
      8.3480006982280996e-001 -1.4888117227181577e-001
      -6.5264877338492944e-001 1.5832492929497641e-001
      2.1763810809406872e-001 -2.8688072876586712e-001
      -2.0215396046416820e-001 1.0643864800463017e-001
      -1.0347707065880712e-001 1.7050161407503463e-002
      9.4597483864810289e-002 1.3362571360073569e-001
      -1.9705186479876569e-001 -2.2038083099558109e-001
      7.8637082822078475e-001 3.6895792377621191e-003
      1.2835063256246895e-001 -2.4078169836629862e-001
      8.1131344404678146e-002 -6.5229535818301820e-001
      -2.1428856585908021e-001 3.1350931114188402e-001
      5.8219405961773918e-001 1.1751395007480303e-001
      1.7074880475282370e-001 2.0347875016905623e-001
      -1.7823576891383787e-002 -8.0256730609067933e-002
      8.1668139566895670e-002 6.7368116249711452e-001
      -9.0761545248705389e-002 4.7059367161119435e-002
      -6.5578186969131895e-003 -5.1363037466037962e-003
      -5.9005226432318127e-002 -3.7717754675292975e-001
      -1.3847217867931272e-001 -2.0170224864568509e-001
      3.5077574251705140e-001 4.8705152527821496e-002
      -2.0392905892756963e-001 -9.3484513814197742e-002
      6.9086244549578887e-002 -6.4943824890747962e-003
      -3.2857190535480219e-001 1.8291059748951841e-001
      7.9377779985673780e-001 -1.0039977962116700e-001
      -7.5860124293617090e-002 -2.2908181500087554e-002
      -2.8855395542436244e-002 -1.2276254484971615e-001
      -2.8612884630267305e-001 -2.2685348959380386e-001
      1.1571173828355794e-001 -2.0495057882755457e-001
      1.9802621825135253e-001 -5.6862511573039015e-003
      -1.3613579549094176e-001 -2.6734663405055609e-001
      8.9329840647997080e-002 1.6084710828297430e-001
      -1.8986140281297503e-001 9.4000820218700668e-002
      3.7132546088258178e-001 8.0071005911449417e-004
      5.7507526737773418e-001 2.3013853741266868e-001
      9.5351908839616237e-002 3.4725328725464766e-001
      -5.0923207752893251e-001 9.6692223255930132e-001
      -1.6357964973372616e-001 -3.5901968538029232e-002
      -3.0329960377204662e-001 -3.5198144552357352e-001
      1.2835978893573189e-002 -6.0546374204566780e-002
      -4.7345407686992608e-002 1.5443613232144923e-002
      2.1166540745546237e-002 1.4028609607916260e-002
      4.8347741613091397e-003 -4.1124742718374779e-001
      -1.9555328942711436e-001 2.9099680202919143e-001
      7.2936919477203876e-002 1.8649747792142538e-001
      3.0741584967221923e-002 -1.8701282373867775e-001
      2.8467976176020732e-001 -5.5800407082170556e-001
      -4.8887960491321596e-002 6.3819672162541488e-002
      -3.6761139870326703e-001 2.4667563128184224e-002
      5.5678838390553687e-001 -2.8171793340478440e-001
      9.6863644719721045e-002 -8.9362868373149495e-002
      -4.7486901288701366e-001 7.1789852268701354e-002
      -5.0261438180015883e-001 1.2899895758815236e-001
      5.3829151060240332e-002 1.4747738555082830e-002
      -6.7044880467406143e-002 -2.5605652829730392e-002
      6.1809829744227385e-001 1.8216026858342302e-001
      -4.3446291893784245e-001 1.2674127331012552e+000
      2.0091144893410254e-001 -8.7694516877316731e-001
      -7.5215668119026757e-001 -1.4511354200985865e-001
      -1.6309860155710015e-001 1.1527647515425886e-001
      -5.1063100965027322e-002 -2.7560540119355725e-001
      -4.3288618854406781e-003 -3.3327738525275666e-002
      -2.1144409249503893e-002 -1.3111748913785642e-001
      4.0412800179294267e-001 -4.3671938291687147e-002
      -1.1171491843709873e+000 1.5049865672960842e-002
      2.4374691301068155e-001 1.9864650689420393e-004
      -9.9425882106988905e-001 -2.1543605394171372e-001
      4.3708522950601403e-001 1.3086943052266767e-001
      -1.2864432333710477e-001 -1.8448831198723134e-001
      2.7872436324109101e-001 -3.3529929396364155e-001
      7.7134875564078359e-002 -2.6910499248852037e-002
      -2.3755114269849820e-001 -7.8907409708446577e-002
      1.6514525002805374e+000 9.5889167022848651e-002
      2.4766314829327096e-001 2.8258713977377564e-001
      -7.0389209412309611e-002 -8.1227345251553243e-002
      -1.2388591958997508e-001 2.8060659416447425e-001
      1.9820438646803940e-001 1.1388308530070891e-001
      -4.1014680647250737e-002 1.5960070816901184e-001
      5.4094055175003197e-001 -4.9010798294956297e-002
      -3.1260852919962429e-001 -4.9945180087731506e-001
      -9.4911086028181976e-002 -2.1102386265379997e-002
      -1.0301567557816747e-001 1.4729140189523854e-001
      -1.6447699550431061e-001 2.6457699148745928e-001
      4.7712823090246180e-002 -2.6732621873340817e-001
      -2.3820484256257823e-001 -2.7546128938025719e-002
      9.5078682649604881e-002 -1.5766541812765553e-001
      -7.6976328542155553e-002 -1.1542375240025080e-002
      4.2147267028137841e-002 -3.7750272655624598e-002
      -7.7286723054471360e-002 -2.3212312034773197e-001
      1.7384406773718178e-001 -8.5922332511047722e-002
      -1.2003919731554911e-001 1.5518006028076325e-001
      5.7494797416979893e-001 -6.3589852210457848e-002
      4.5484514777034479e-001 7.0121536679423321e-002
      1.8205867173310056e-001 1.9632282798377937e-001
      6.9118551040094589e-001 -1.2798546106092212e-001
      -3.0061215077541192e-001 -7.6349740100975630e-002
      2.0574117877360074e-001 5.7905685346751734e-001
      -4.3995934576482314e-002 -1.5958921514691452e-003
      1.2071701006721000e-001 -1.3355045755037329e-001
      -7.2594186143194406e-002 -5.1956748914811246e-001
      1.3692725768878272e-001 6.3136601240414050e-002
      -2.2452701746554846e-001 6.2833805450050628e-002
      -1.4504011325909594e+000 1.1883656389482683e-001
      6.1632566550300508e-003 -3.1175543784295754e+000
      -7.8197442897713271e-002 -2.2620759458833092e-001
      -2.6196061307364378e+000 -1.4263595870060113e+000
      5.1243721739274065e-002 -1.0973381730598990e-001
      4.0370163005789043e-002 8.4597156153790531e-001
      -2.6899042589815936e-001 -1.7099688604280144e-001
      6.5271029465606312e-001 -9.5026959056375176e-002
      -1.0519879644508899e-001 1.0685468669726923e-001
      1.1106046537153114e+000 5.1724328449102623e-002
      1.1188339154484073e+000 4.7732887242093611e-002
      2.5152660937678037e+000 1.0054489602271532e+000
      -3.7188972716116488e+000 6.9761127154306080e-001
      9.0494704422340366e-002 4.9691258249730347e-001
      2.9263534618826259e-001 2.5215316214872905e+000
      1.0731061746142510e+000 5.0561279745001930e-001
      2.9932690396866823e-001 3.3178325806047404e-001
      -2.4558933785382209e-002 2.6023108996112675e-002
      1.3968591702939326e-001 -5.0885645552294877e-002
      7.5737392621123056e-002 6.3541302462747085e-002
      -2.1524865758128082e+000 1.4087173235595743e-001
      1.5013671566407863e-001 -1.0271948050135509e+000
      -1.0599973965855293e-001 -9.7338713524913315e-002
      -4.7639461394766407e+000 -1.4064677326709945e+000
      -3.9221430614727815e-001 1.9856257311160952e-001
      2.2583019441419047e-001 4.0727255074751390e-001
      -2.6948424348955841e-001 -9.7407387185818733e-002
      5.4202142561164035e-001 5.4862034949389850e-003
      3.0871198401523359e-002 5.7754684039410295e-002
      1.6981815151943341e-001 1.0177696929047936e-001
      1.1097654957577128e+000 -3.5773507053128283e-002
      1.2143480326093681e+000 -8.1596776136986116e-001
      -1.6567796751147434e+000 7.8741302842761884e-001
      5.8673554303536823e-002 6.1932925346565104e-001
      -1.0178329073855760e-001 1.8988353160543816e+000
      3.7800262733604567e-001 5.1510673118967454e-001
      3.3250518511935306e-002 8.1107760123177136e-002
      -9.0786958870232026e-002 -1.1769818428680937e-001
      1.3792943422239970e-001 -1.8169054345239565e-003
      1.9676716386577556e-001 -1.1374103857227980e-001
      -5.1286670341922791e-001 2.3454163984465543e-001
      -5.6384980850445507e-002 -1.0790503441399832e-001
      -1.4506954204275928e-002 -1.4245321135805879e-002
      -1.5619756103684423e-001 3.4212127626486892e-002
      1.2388681053579331e-001 -1.4815747442801669e-001
      -1.6610750469036634e-001 -2.3679158177992241e-002
      -1.6342195234542473e-001 -4.4285047723430525e-002
      7.9350421768303592e-002 1.0708474845514249e-001
      1.1531245395681530e-001 -3.5215178069786683e-002
      -5.6944945509926091e-002 -9.2888980833019746e-002
      -1.2284662050202634e-001 2.2432503484833202e-001
      -1.5708773498600270e-001 -1.3179195694757678e-001
      2.2895848429681817e-001 -1.0008371184928941e-001
      -3.5601102545077930e-002 -4.2665654494813583e-002
      -8.3125861981478352e-003 1.0589315369388919e-001
      4.0491439888646182e-002 -9.9367259720668233e-003
      7.5681378713318356e-002 4.6835678955939406e-003
      -1.1361120103506511e-001 1.2323893845047441e-001
      3.1402818321403547e-001 7.7322789157738880e-002
      4.0454885646685305e-002 8.0621294291916543e-002
      -4.6918454167136185e-003 4.3004066520292400e-002
      1.5050632200933788e-002 -4.8010104497460904e-001
      8.0793995813156008e-002 2.4388894399512989e-001
      -4.8298599515746976e-001 7.5507674339027733e-002
      7.2633948986833385e-001 1.6909857383452179e-001
      9.5410267747642455e-002 9.3497504753308133e-002
      1.0805074317318919e-001 -3.1392373518199740e-001
      4.9512570980995901e-001 4.7983695913633173e-001
      -3.5987892149585071e-001 8.5832730460886058e-003
      6.2510614913642987e-003 -2.0204942643396546e-003
      -1.8528980665873793e-001 2.5985289838488479e-001
      -1.2589726287693916e+000 -7.2801036307436590e-002
      4.9944735841728349e-001 -3.8625002981881579e-001
      -5.8052290821679786e-001 3.6511466754540722e-001
      6.2453724524892222e-002 -1.3128482670556274e-001
      -4.6482833631276553e-002 2.0319018965145630e-001
      1.3453237953459762e-001 -7.5687319704014877e-001
      -1.1928239414086696e-001 -1.3820046192783558e-001
      -2.1347196747298059e-002 2.2151116222629608e-001
      3.5269899205156552e-001 1.7941012837155079e-001
      8.1921963441734282e-003 -1.5136104904494932e-001
      -1.1735597479564017e-001 5.8941763486484257e-002
      -1.0668489855325404e-001 4.2410943248935590e-001
      -5.6752379605482697e-002 3.3822843700254519e-002
      -1.7003747618952977e-001 1.1793957853311082e-001
      -5.4917278335453998e-002 -1.1886103531711478e-001
      -3.0694009898606617e-001 7.6189949365885426e-002
      3.6212626984049173e-002 9.8580265737922321e-002
      1.7422705407384286e-002 1.6562558255476933e-003
      2.0953490659430557e-001 4.1700893235128844e-001
      3.1298033874702641e-001 7.1971502949568930e-002
      -4.1473168635307631e-002 -5.7872002706936883e-002
      2.6026126170315300e-001 -1.0617285569339877e-001
      -1.9286538663204941e-001 2.9035219643682159e-001
      -6.9658161737626401e-002 9.3589439948031442e-002
      -2.7322754088386237e-002 1.4793478432500626e-001
      7.3159305735021374e-001 -1.8912258040115704e-002
      -1.1437666994262144e-001 -2.2699738500324274e-001
      -2.6840313571962277e-002 7.5942304705597347e-002
      2.3839856450676103e-001 -8.6820967438740126e-002
      -1.9133281297869709e-001 -2.2945725722086166e-001
      1.9085382146033125e-002 4.0710767896555082e-002
      -1.3209452796140703e-001 1.6121723070904481e-001
      -1.2124286761886366e-001 -7.1445073457565955e-002
      1.2184391535160487e-001 5.8275240147704056e-002
      -1.8094828144546199e-001 7.4223446009564320e-002
      2.5639305838948706e-001 3.8377164371566808e-001
      8.0215304227213235e-002 -8.7750819296198972e-003
      9.3695648629038439e-002 -5.9091782474908365e-002
      -2.5513516329622926e-001 7.1923904369405611e-001
      1.9334934316550187e-002 -5.6044798985857694e-002
      1.3112351135416828e-001 8.0713396394739317e-002
      -1.1182665206906489e-001 -1.7417535692649716e-001
      -2.8323723121740008e-001 3.5991760636526665e-001
      2.3701103795824530e-001 -1.8480094460218779e-001
      -1.1746411404460397e-001 4.3363189832064497e-001
      5.1583546444326511e-001 -2.9510059266808646e-002
      2.1300645338155677e-002 -1.3356669164558072e-001
      1.0455101861765900e-002 1.7663481203103124e-001
      -1.3693582205010051e+000 9.9703260411806660e-002
      -8.1729037122773324e-002 2.0875810521484811e-001
      4.1775523486638355e-001 1.4264349644928893e+000
      1.3985064408852818e-001 2.4457556101081346e-001
      2.2415228135022891e-002 4.0516712102877783e-001
      6.6773700869255614e-001 1.0367684394936591e-001
      2.0430569564997156e-001 3.8116196725066845e-002
      2.9720386736233950e-001 1.4851681789762128e-001
      -2.0256724733908368e-001 7.5054188182553883e-001
      -9.4368381040279947e-002 -1.2897405229093145e-001
      6.8288761692820929e-002 7.7126880754632129e-002
      -1.3805335118817024e+000 8.9189878582668636e-002
      3.0550695824973567e-001 -4.6008623486816808e-002
      -1.8720374617556329e-001 1.4461545186808145e-001
      -5.6090483137195701e-001 -4.7781763494387103e-001
      5.6050132450680759e-002 -5.3397296473366140e-001
      1.5194517549238033e-002 -1.2294212021524351e-001
      6.9698610400905650e-002 1.0505998413145709e-001
      3.1265327305050544e-001 -1.6342423771352518e-001
      8.9325870792304682e-002 6.5984028737357909e-003
      -1.2146983278934171e+000 3.3148919860671862e-003
      -1.0198525635742701e-002 -1.4395436307026055e-001
      2.7523291759821933e-001 9.1527772595765569e-002
      5.0651546487857003e-002 -1.0014887729279439e-003
      -9.6875312367013300e-002 3.4050182714703454e-003
      -1.1843303627506385e-001 1.6125856705728264e-001
      5.2480070850173444e-001 -3.9400838316700895e-002
      -7.8113226169875460e-001 1.8123239972034413e-001
      3.3824239723740657e-001 1.1520094369328174e-001
      -6.5961297651556255e-002 -3.7845432433203229e-002
      -4.5430042026882000e-001 -4.3157952032439006e-001
      2.3331256268696610e-001 -4.9784337860362904e-001
      2.5633251559437459e-001 -3.0206840015046960e-001
      -5.9048640202200808e-001 5.1974517266223826e-002
      -6.2710664076705003e-002 -4.0483245071247609e-001
      -2.7989910374796128e-002 -3.5672060798025368e-001
      9.6866773542629125e-002 -4.0230611708969366e-001
      5.0871787763700375e-002 9.2136057233202340e-002
      1.0747770212571799e-001 -1.9409671160474978e-001
      3.0558990594027602e-001 8.7816996958313253e-003
      -1.2237615862236878e-002 -7.8343219850664991e-001
      9.3430745235478330e-001 -1.9545944109331967e-001
      3.4029287241209266e-001 -9.2720567805156251e-002
      -1.4862088435322616e+000 -1.3455657926152065e-001
      5.0846252261685698e-001 4.8140024301773873e-002
      -1.3616594362210724e-001 7.5765417301451476e-001
      5.6633049905991473e-001 1.3534776878922697e-001
      -3.4248497410463502e-001 -3.5411834779419710e-001
      -7.1894739424848642e-002 -5.5215179965043570e-001
      3.4030242891803397e-001 -3.7676427404602915e-003
      1.4141927163186027e-001 -1.4443450096166413e-001
      3.9867433592181929e-002 4.9453701974235725e-001
      3.3020494814878387e-001 -8.0284011240453024e-001
      -6.1348004806842889e-002 -1.4538491024287253e-001
      -1.0627873872688773e-001 5.6585229013625934e-002
      5.0028389082330293e-001 -8.5392435862587512e-001
      3.3352095882907851e-001 -1.3030166927842968e+000
      4.7963236204972470e-001 5.8913424635772919e-003
      -2.0338031797686523e-001 5.7455671850794754e-002
      1.0776478288765889e-001 2.0554680710956294e-001
      -2.9477552487533674e-002 -2.1368349553972327e-001
      2.2818412228513701e-002 6.3183703818147668e-002
      -7.4683912449641093e-002 -1.1250560486350603e-001
      -1.5802298319584882e-001 2.6903382950558306e-002
      1.6219271450673919e-001 -9.7086480048548016e-002
      -5.1860432841903459e-001 2.2903278351023795e-001
      -1.1789425089595548e-001 1.7366225766895296e-001
      1.7456003062253082e-002 -1.7137441705430376e-001
      -4.6597239497160277e-002 -8.8454771499949680e-002
      -2.8122058540756938e-003 7.4029942759793610e-001
      -1.6170656421906229e-001 2.1619204468476684e-002
      -1.4794926472901249e-001 7.0641808666639661e-002
      -9.6201134823732493e-002 -1.1596467650506237e-001
      1.6212144235042664e-001 -2.2786201415489643e-001
      -1.4019489792118972e-001 -8.2428688320253518e-002
      -8.3453162300207023e-002 -2.5163955913939290e-001
      3.2299154244995137e-001 -2.2152111477331662e-002
      1.2101402267877295e-001 9.5305961404826653e-002
      -2.2838129630082440e-001 -2.7943783833344199e-001
      1.0743944878705911e-001 1.3456466031497877e-001
      4.6437986654284065e-002 6.6670563681024628e-002
      -3.3208201637235546e+000 6.7077548096261222e-002
      1.4385482046437977e-002 -3.1755820539784940e+000
      -1.6746512625109056e-001 5.3046041584425302e-002
      -2.5991298873546644e+000 -1.4273629168891186e+000
      -4.4891835653802753e-002 -9.1169996146810581e-002
      -1.2559011100408962e-001 8.0979537620355502e-001
      -3.6062599436229009e-001 -1.9163260024105500e-001
      4.9235825490587798e-001 3.5862725653393384e-003
      2.1673514467742065e-002 -2.7176583842781137e-002
      -2.6934254939227520e-001 2.1163831211454268e-001
      1.1163979008204272e+000 5.8691741098942589e-002
      2.5141228468647689e+000 8.4379965520421385e-001
      -2.6274725377687020e+000 -1.4608996349460701e-001
      -1.1654094576320174e-002 5.2830172557474997e-001
      -1.3715211901896784e-001 2.4143484526413195e+000
      2.7472544415624639e-001 7.4000912559316623e-002
      1.0688274823780202e+000 3.1572277845285734e-001
      -3.8012080808132587e-001 3.8990325413116242e-002
      -2.9805530971439939e-002 -9.5490034599741203e-002
      -8.6639082849657295e-003 5.6688052982529144e-002
      -4.8191413626585533e-001 1.5422763969915351e-001
      3.6766702480298885e-001 1.1618280685684615e-001
      -5.8817546715377346e-002 3.2175908280793947e-002
      -4.3861862888769574e+000 -5.9033636694174441e-001
      -4.0350956511047487e-001 -1.0263564597099545e-001
      1.3555618161573788e-002 5.2544161738575679e-001
      -5.6042342162047454e-001 -9.5013191512012193e-002
      3.7046553293737744e-001 -5.1626794106955851e-003
      1.9258941649102701e-001 1.9120446122872000e-002
      -3.4318090674371915e-001 9.4430587074453523e-002
      5.4927632871761745e-001 2.3974337229887222e-002
      -1.2403022884568082e-001 1.0046816648328492e+000
      -7.4168817514244756e-001 1.6566192623638989e-001
      6.5964348127114034e-002 1.3428262815070402e-001
      6.8777211142013309e-002 2.3811045280984748e+000
      2.4894912703511768e-001 4.0691708136735955e-001
      -1.8930515931123018e-001 2.8813977928274681e-001
      -3.8604409870263817e-001 -3.3712293896574103e-001
      -8.7671923799033415e-003 -5.5314576016619911e-002
      -2.1343103996804100e-002 2.5902621512407242e-002
      -6.5983853247919250e-002 4.9395166033966327e-002
      -5.1963593573528810e-002 -3.7036229107624929e-001
      7.7109841170685145e-002 -3.2378751484651486e-001
      1.8137137320795016e-001 4.2292731287302175e-002
      2.5050308711110025e-001 2.2197838380428467e-002
      1.4247987618055652e-002 6.2142034977674725e-002
      2.8048820474080225e-002 1.3584012945161489e-001
      1.1106863008610550e-001 -1.3969487973736591e-001
      3.8487890237442979e-002 1.9695819559071942e-001
      5.3283288396940236e-002 -3.5176473021867632e-002
      1.7273709325634776e-001 -1.5109847406587087e-001
      1.0246386248156938e-001 1.6560198834439308e-001
      -2.4048664911491785e-001 -5.1781419865810155e-002
      -3.3783659213775505e-002 -1.9326590789006351e-002
      8.3767407902766308e-002 4.7202120252095831e-002
      -1.2628729509167569e-001 1.4951532199545389e-001
      -1.5163643371665617e-001 6.1232800063948219e-002
      -1.1435367477712333e-002 -4.7514123688320836e-002
      1.9143448997998405e-001 2.6832248536554599e-002
      1.2346484900797117e-001 1.3813208041186983e-001
      3.1018809835675735e-002 -3.4128963183493476e-002
      -9.7965837332860076e-003 -4.7532894855664931e-001
      -1.3139985486171549e-001 2.7883314296995299e-001
      -4.8215696165577793e-001 6.2535685600091137e-002
      7.3378020451449155e-001 -1.1279309296326756e-001
      9.3644591167370186e-002 1.3108610503801588e-001
      -4.9568908043162851e-001 2.8978705594340487e-001
      5.1158421822239797e-001 1.0064241001676984e-001
      1.1924911343171181e-001 2.5420795203843760e-001
      -6.8490898807071454e-001 6.0450692212938750e-002
      -1.9618485032102317e-001 1.9285335537879147e-001
      -9.2813629352740212e-001 -2.3354295617372364e-001
      1.7634610980987513e+000 -1.5553536113214958e-001
      -8.9888381164692666e-001 8.1533432677321827e-001
      -1.8493315284798108e-002 -1.0993848063259160e-001
      -2.2917872659917762e-002 1.8491208079267710e-001
      7.9761393261337055e-001 -4.9903739496417415e-001
      -8.1641801196530195e-002 1.2573598957132054e-001
      -2.7757239693746740e-002 -2.1408335710779200e-002
      -1.2086236652918809e-002 1.5390445174001477e-001
      2.8358091131549960e-002 -5.5225980375138461e-001
      2.6104578141326951e-001 1.4764708965491638e-001
      -1.9374210618890236e-001 2.1499353620141967e-001
      -4.4357289957469209e-002 2.0224824827078689e-002
      2.3575236241099102e-002 -1.0523682139635289e-001
      -1.2667051904787474e-001 -9.0137031100199577e-002
      -6.2848169019948302e-002 6.4267564591647786e-001
      -1.9188139172798283e-002 -2.7303816039117801e-002
      3.7811156110241294e-002 1.4813037884064878e-001
      1.5484996101012483e-001 2.9058602198681377e-001
      2.2883046156643244e-001 -5.5016818877191800e-002
      1.0228049532502086e-001 -8.1523304494508925e-002
      3.8545423680929086e-001 -4.9047291532285549e-002
      -2.3044863447727559e-001 3.1270205934678275e-001
      -9.2018650949280578e-002 -1.1101396703326988e-001
      -2.2261826502921050e-002 2.2948057963846774e-002
      2.2316107773074739e-001 -7.8876555374275577e-003
      -2.6209253367371832e-001 -2.1183533719639244e-001
      1.0210487118681670e-001 1.9756168762602111e-001
      2.7263994127286993e-002 2.1013840739073397e-001
      -1.0101537937769260e-001 -3.5895640660255718e-001
      -1.8108797004009392e-001 2.7775871511241158e-002
      -1.6930521018273217e-001 1.2343865983496484e-001
      1.3174903993972045e-001 -5.3143430934254852e-002
      6.7437567044949420e-001 3.9866998195244785e-001
      -1.1860252281864699e-001 2.7158104756552510e-002
      1.1905909042845936e-001 3.5510550565840221e-001
      1.1008499821747819e-001 -6.9216334987031392e-002
      3.8660856044870212e-002 1.3437950357420714e-001
      -2.7193889743159388e-001 4.2506957861352340e-001
      1.0191566296674294e-001 -7.8010690153299855e-001
      4.1230229813227576e-002 3.6547219611164992e-002
      -1.9062791798332301e-001 -4.5038552649608571e-002
      1.8690314976679373e-001 3.4423257720521327e-001
      -4.1747106810172394e-002 -1.9779627106150408e-001
      -1.9026627530735610e-001 3.7902737082330723e-001
      -1.9693759985182169e-001 3.8466988588130288e-002
      -1.9970551614132713e-002 -2.2120562976454775e-001
      3.0175235153361069e-001 2.2619531767138440e-001
      1.1834722473818855e-001 8.0075214863959236e-003
      1.3481927512624192e-001 2.3502809710994299e-001
      3.2837460987839484e-001 5.8048139054991413e-002
      1.7867208135880908e-001 1.8707988984293736e-001
      6.6239395907244619e-002 4.8979057557787348e-001
      7.0353458778674083e-001 1.3518717421412405e-001
      5.9391269220605580e-001 4.2875072932655883e-002
      -1.7155878134045885e-002 -4.7935427831222371e-001
      4.6774469299182736e-001 3.0762758131064166e-001
      -1.8269067495105848e-001 -1.7644270767020285e+000
      -6.2842301171921432e-003 3.2051771756620807e-002
      6.0032708103059856e-002 -4.2887313827399282e-001
      2.2033693985340227e-001 -5.4907565336302519e-002
      -6.6551694896257299e-002 5.8212215964603249e-002
      -5.8730955255345874e-001 -5.5644587532164769e-001
      -2.6545285071943819e-001 -1.2242773154613615e+000
      1.1787745729381349e-001 -2.8524656021568318e-001
      -2.8519409422181133e-002 -1.6034959817112970e-001
      -7.0362066577837629e-003 9.5420560020034642e-002
      2.6011717138133877e-001 9.6493366476033043e-002
      6.8738463977540245e-003 2.3387252616977418e-002
      2.5527856951642791e-001 -5.6982636973660211e-002
      -1.1795416513666376e-001 -4.6725751801428343e-002
      1.2413934748973918e-001 1.2480672640486555e-001
      1.1807294458920438e-001 -2.2939193663048068e-002
      -4.9335559111010252e-001 1.0589059459067561e-001
      1.1124006384399645e+000 -1.3056542426289436e-001
      -3.4182433850607585e-001 1.2442348022590986e-001
      5.3225153000462921e-001 5.6728622991916937e-002
      -1.8840421512187702e-001 8.1297898759148751e-002
      -3.7665580731937581e-001 -6.4373010359461358e-002
      -8.1001330651891557e-001 -4.1070641957082676e-001
      7.3551456704101709e-002 -9.7007847362568678e-002
      -5.3430773431310419e-002 -8.8453900294712270e-002
      1.7355664952609956e-001 -1.2800703263760680e+000
      -1.7286003540119163e-001 -6.9257864296126279e-002
      9.0935750549754571e-002 -8.7046976180469859e-001
      2.2293487233895373e-001 -2.2923238200176105e-001
      1.5904701799197962e-001 -2.7722247798961203e-001
      8.2395467075531081e-001 1.0086257575988805e-001
      5.4211665095328506e-003 -2.7947450459425310e-001
      -1.7091720580165470e-001 -3.3464394566713168e-001
      -1.4049401659483751e-001 -1.0022696973165690e-001
      -1.0449783077241157e-001 -1.2817999789554121e-001
      5.2205997364525036e-001 -3.8112216316142056e-001
      -2.8200376094051217e-002 1.1106711483474689e+000
      1.7489835282329981e-002 -2.5493903783802557e-001
      1.7630721340543606e-001 -1.9553980466717622e+000
      -8.9137948698215022e-003 7.7007257806430418e-002
      -3.3988907054288114e-002 2.6613958497057894e-001
      -1.8508619414480254e-001 4.2123916804942081e-003
      -8.1757411855693041e-001 1.2011690296217205e-001
      1.0474405842562440e+000 -2.0906310691906960e-001
      -6.3443468561611246e-002 -2.3427899202480340e-002
      4.1628343963517863e-003 2.7117286678703001e-002
      3.3308341527377278e-001 -4.8402607531720251e-002
      4.2471142005239848e-001 9.0291789577402171e-001
      2.8729804342691606e-001 -1.3416637667079540e-001
      -1.0576355667309818e-001 1.1668135445992742e-001
      3.6637081531751536e-001 1.1866506591628018e-001
      -9.8626446829920833e-003 -3.8491519061430246e-001
      1.2199381993843052e-002 -2.2963950611235073e-002
      -8.1586148081885634e-002 -5.9324010303894159e-001
      -9.2818608742059439e-002 6.6074301443127788e-003
      6.7920659933921129e-002 -1.2814709978860178e-001
      -2.6516407122073077e-001 1.3698572081639497e+000
      -1.2421022781504706e-001 -1.9787438314831190e-002
      -3.2486796552416659e-002 -2.6721305457815403e-001
      -5.7377267006785145e-002 5.0509044946859302e-002
      4.3457892042218491e-002 -3.4157937413935503e-002
      -1.5805300729802446e-001 -1.8189822197945146e-001
      -8.3161230041692358e-001 -1.0328055995356197e-001
      4.1248642249994155e-001 -1.6066165956386472e-001
      -6.4343538547584032e-003 8.2125904183652829e-002
      -1.2682931051112442e-001 -1.6086580482567225e-002
      -1.6603667454882767e-001 -2.2980660038582937e-001
      2.6135527501757749e-001 7.5814044432621644e-002
      1.0819531810369282e-001 2.0225943427734358e-001
      -9.8864612755408227e-002 1.0969197104357407e-001
      1.0693166792948293e-001 2.5282343098533822e-001
      1.1605550530515721e-001 -4.1723751736023551e-002
